{"learner":{"attributes":{"best_iteration":"99","best_ntree_limit":"100","scikit_learn":"{\"n_estimators\": 100, \"objective\": \"reg:squarederror\", \"max_depth\": null, \"max_leaves\": null, \"max_bin\": null, \"grow_policy\": null, \"learning_rate\": null, \"verbosity\": null, \"booster\": null, \"tree_method\": null, \"gamma\": null, \"min_child_weight\": null, \"max_delta_step\": null, \"subsample\": null, \"sampling_method\": null, \"colsample_bytree\": null, \"colsample_bylevel\": null, \"colsample_bynode\": null, \"reg_alpha\": null, \"reg_lambda\": null, \"scale_pos_weight\": null, \"base_score\": null, \"missing\": NaN, \"num_parallel_tree\": null, \"random_state\": null, \"n_jobs\": null, \"monotone_constraints\": null, \"interaction_constraints\": null, \"importance_type\": null, \"gpu_id\": null, \"validate_parameters\": null, \"predictor\": null, \"enable_categorical\": false, \"feature_types\": null, \"max_cat_to_onehot\": null, \"max_cat_threshold\": null, \"eval_metric\": null, \"early_stopping_rounds\": null, \"callbacks\": null, \"_estimator_type\": \"regressor\"}"},"feature_names":[],"feature_types":[],"gradient_booster":{"model":{"gbtree_model_param":{"num_parallel_tree":"1","num_trees":"100","size_leaf_vector":"0"},"tree_info":[0,0,0,0,0,0,0,0,0,0,0,0,0,0,0,0,0,0,0,0,0,0,0,0,0,0,0,0,0,0,0,0,0,0,0,0,0,0,0,0,0,0,0,0,0,0,0,0,0,0,0,0,0,0,0,0,0,0,0,0,0,0,0,0,0,0,0,0,0,0,0,0,0,0,0,0,0,0,0,0,0,0,0,0,0,0,0,0,0,0,0,0,0,0,0,0,0,0,0,0],"trees":[{"base_weights":[3.7895446E0,7.3969374E0,1.7477502E0,1.3035085E1,1.9454082E0,3.1510363E0,-3.7760053E-2,6.3914595E0,1.9978527E1,-2.4406268E-1,5.351291E0,2.6352031E0,1.2218491E1,-3.5029936E-1,4.595374E0,7.289547E0,-3.7040967E-1,1.2524329E1,2.841655E1,-4.111291E-1,1.5079557E0,5.659155E0,-2.4905859E-1,3.8701613E0,-1.2837951E-1,2.0302788E1,6.1363947E-2,-4.920536E-1,8.806798E-1,-2.4800065E-1,5.8682175E0,8.420576E0,1.5425142E1,3.4617805E1,1.5291736E1,-4.8074475E-1,1.615588E-1,1.6188325E0,5.793682E0,4.3598795E0,1.0697362E0,-3.9512044E-1,1.7042167E0,-2.4944656E-1,3.4149247E-1,-3.6983818E-2,3.6521626E0,1.646433E1,4.595009E0,8.2211864E-1,-3.3266735E-1,5.9323816E0,3.434544E0,-3.996766E-1,1.9664973E0,9.102402E-1,-4.8033586E-1,1.1199982E0,-4.1648054E-1],"categories":[],"categories_nodes":[],"categories_segments":[],"categories_sizes":[],"default_left":[1,1,1,1,1,1,1,1,1,1,1,1,1,1,1,0,0,1,1,1,0,1,0,1,1,0,1,0,1,0,0,0,1,0,0,0,1,0,0,1,1,1,0,0,0,1,0,0,0,0,0,0,0,0,0,0,0,0,0],"id":0,"left_children":[1,3,5,7,9,11,13,15,17,19,21,23,25,27,29,-1,-1,31,33,35,-1,37,-1,39,41,-1,43,-1,45,-1,-1,-1,47,-1,-1,-1,49,-1,-1,51,53,55,-1,-1,-1,57,-1,-1,-1,-1,-1,-1,-1,-1,-1,-1,-1,-1,-1],"loss_changes":[1.9905032E3,2.9868203E3,4.3859576E2,2.0865298E3,3.8161725E2,4.2617657E2,1.145566E2,1.6059167E2,1.0907715E3,9.986474E0,3.5892334E1,3.213103E2,4.901632E2,1.3346083E1,3.227961E1,0E0,0E0,3.6770508E1,2.845371E2,1.2737093E0,0E0,9.480591E-1,0E0,8.447833E1,1.5338225E1,0E0,3.463848E-1,0E0,2.0481382E1,0E0,0E0,0E0,3.1280518E0,0E0,0E0,0E0,1.579356E0,0E0,0E0,5.965503E1,1.5280797E1,3.4406161E0,0E0,0E0,0E0,3.5399535E0,0E0,0E0,0E0,0E0,0E0,0E0,0E0,0E0,0E0,0E0,0E0,0E0,0E0],"parents":[2147483647,0,0,1,1,2,2,3,3,4,4,5,5,6,6,7,7,8,8,9,9,10,10,11,11,12,12,13,13,14,14,17,17,18,18,19,19,21,21,23,23,24,24,26,26,28,28,32,32,36,36,39,39,40,40,41,41,45,45],"right_children":[2,4,6,8,10,12,14,16,18,20,22,24,26,28,30,-1,-1,32,34,36,-1,38,-1,40,42,-1,44,-1,46,-1,-1,-1,48,-1,-1,-1,50,-1,-1,52,54,56,-1,-1,-1,58,-1,-1,-1,-1,-1,-1,-1,-1,-1,-1,-1,-1,-1],"split_conditions":[-7.1299624E-1,1.7866307E-1,1.3635051E-1,-8.620083E-3,-8.6302423E-1,6.532707E-1,9.9722683E-1,-2.1418625E-1,-7.504126E-1,-9.567644E-1,2.8192894E0,2.9717392E-1,-6.989152E-2,5.2032214E-1,2.9873745E0,2.1868641E0,-1.11122906E-1,-7.5052416E-1,-6.0308015E-1,-1.091687E0,4.523867E-1,-1.0721463E0,-7.471758E-2,-1.0890515E0,-6.7479134E-1,6.0908365E0,-5.22724E-1,-1.4761609E-1,1.7967982E-2,-7.44002E-2,1.7604653E0,2.5261729E0,-7.5044286E-1,1.0385342E1,4.587521E0,-1.4422344E-1,-1.0916147E0,4.8564976E-1,1.7381047E0,5.9288383E-2,-5.2598584E-1,-1.5844646E0,5.1126504E-1,-7.483397E-2,1.0244775E-1,1.6648288E-1,1.0956488E0,4.9392996E0,1.3785027E0,2.466356E-1,-9.980021E-2,1.7797146E0,1.0303633E0,-1.1990298E-1,5.899492E-1,2.7307206E-1,-1.4410077E-1,3.359995E-1,-1.24944165E-1],"split_indices":[1,3,0,3,1,2,2,3,0,1,0,2,1,3,0,0,0,0,0,1,0,0,0,0,0,0,0,0,2,0,0,0,0,0,0,0,1,0,0,3,0,0,0,0,0,0,0,0,0,0,0,0,0,0,0,0,0,0,0],"split_type":[0,0,0,0,0,0,0,0,0,0,0,0,0,0,0,0,0,0,0,0,0,0,0,0,0,0,0,0,0,0,0,0,0,0,0,0,0,0,0,0,0,0,0,0,0,0,0,0,0,0,0,0,0,0,0,0,0,0,0],"sum_hessian":[2.71E2,9.7E1,1.74E2,4.7E1,5E1,9.7E1,7.7E1,2.5E1,2.2E1,3.1E1,1.9E1,9.3E1,4E0,7.3E1,4E0,2.2E1,3E0,1.3E1,9E0,2.9E1,2E0,1.8E1,1E0,6.4E1,2.9E1,2E0,2E0,6.6E1,7E0,1E0,3E0,7E0,6E0,5E0,4E0,2.6E1,3E0,1E0,1.7E1,5.4E1,1E1,2.6E1,3E0,1E0,1E0,6E0,1E0,5E0,1E0,1E0,2E0,1.8E1,3.6E1,4E0,6E0,1E0,2.5E1,1E0,5E0],"tree_param":{"num_deleted":"0","num_feature":"4","num_nodes":"59","size_leaf_vector":"0"}},{"base_weights":[2.8048158E0,5.468638E0,1.2970477E0,9.663987E0,1.4128451E0,2.3081622E0,1.0044296E-2,4.553858E0,1.5020483E1,-2.8770328E-1,3.6675546E0,1.8863481E0,9.776634E0,-2.295462E-1,3.5539749E0,5.197764E0,-2.870675E-1,9.398743E0,2.138887E1,-3.418629E-1,1.4979997E-1,3.862362E0,-2.116998E-1,2.7595763E0,-6.852442E-2,1.6242231E1,5.215935E-2,-3.4664074E-1,7.798139E-1,-2.1080056E-1,4.5478687E0,6.2101746E0,1.1700143E1,2.7571472E1,1.2671891E1,6.988008E-1,-2.661339E-1,1.5927771E0,4.1521387E0,1.3510318E0,3.401131E0,-2.7180758E-1,1.320768E0,-2.1202958E-1,2.902686E-1,4.262077E-3,3.1043382E0,3.648066E0,7.963387E-1,1.108583E1,2.964607E0,7.737042E-1,-3.417774E-1,9.519985E-1,-3.123604E-1],"categories":[],"categories_nodes":[],"categories_segments":[],"categories_sizes":[],"default_left":[1,1,1,1,1,1,1,1,1,1,1,1,1,1,1,0,0,1,1,0,1,1,0,1,1,0,1,0,1,0,0,0,0,0,0,0,0,0,0,1,1,1,0,0,0,1,0,0,0,0,0,0,0,0,0],"id":1,"left_children":[1,3,5,7,9,11,13,15,17,19,21,23,25,27,29,-1,-1,31,33,-1,35,37,-1,39,41,-1,43,-1,45,-1,-1,-1,-1,-1,-1,-1,-1,-1,-1,47,49,51,-1,-1,-1,53,-1,-1,-1,-1,-1,-1,-1,-1,-1],"loss_changes":[1.0853745E3,1.6538625E3,2.2770572E2,1.2454731E3,1.9660153E2,2.902879E2,6.704499E1,8.2536804E1,6.224043E2,7.620611E-1,1.7443237E1,1.6065176E2,3.1352545E2,9.016417E0,1.9667633E1,0E0,0E0,3.0074463E1,1.8955371E2,0E0,1.0993667E0,7.197693E0,0E0,5.414279E1,8.831587E0,0E0,2.5026304E-1,0E0,1.44090805E1,0E0,0E0,0E0,0E0,0E0,0E0,0E0,0E0,0E0,0E0,2.5126183E1,1.1473526E2,2.2396007E0,0E0,0E0,0E0,2.3978891E0,0E0,0E0,0E0,0E0,0E0,0E0,0E0,0E0,0E0],"parents":[2147483647,0,0,1,1,2,2,3,3,4,4,5,5,6,6,7,7,8,8,9,9,10,10,11,11,12,12,13,13,14,14,17,17,18,18,20,20,21,21,23,23,24,24,26,26,28,28,39,39,40,40,41,41,45,45],"right_children":[2,4,6,8,10,12,14,16,18,20,22,24,26,28,30,-1,-1,32,34,-1,36,38,-1,40,42,-1,44,-1,46,-1,-1,-1,-1,-1,-1,-1,-1,-1,-1,48,50,52,-1,-1,-1,54,-1,-1,-1,-1,-1,-1,-1,-1,-1],"split_conditions":[-7.1299624E-1,1.7866307E-1,1.3635051E-1,-8.620083E-3,-9.567644E-1,6.532707E-1,9.9722683E-1,-2.1418625E-1,-7.504126E-1,-1.091687E0,2.8192894E0,2.9717392E-1,-6.989152E-2,5.2032214E-1,2.9873745E0,1.5593293E0,-8.6120255E-2,-7.5052416E-1,-6.0309184E-1,-1.0255887E-1,-1.0916147E0,-8.148675E-1,-6.350994E-2,1.2896703E-1,-6.7479134E-1,4.8726697E0,-5.22724E-1,-1.03992224E-1,1.7967982E-2,-6.324017E-2,1.3643607E0,1.8630525E0,3.510043E0,8.271442E0,3.8015676E0,2.0964025E-1,-7.9840176E-2,4.7783315E-1,1.2456417E0,5.4425508E-2,1.6392002E-1,-1.5844646E0,3.9623043E-1,-6.360888E-2,8.708058E-2,1.6648288E-1,9.313015E-1,1.0944198E0,2.3890162E-1,3.3257492E0,8.893821E-1,2.3211126E-1,-1.0253323E-1,2.8559956E-1,-9.370813E-2],"split_indices":[1,3,0,3,1,2,2,3,0,1,0,2,1,3,0,0,0,0,0,0,1,1,0,2,0,0,0,0,2,0,0,0,0,0,0,0,0,0,0,3,2,0,0,0,0,0,0,0,0,0,0,0,0,0,0],"split_type":[0,0,0,0,0,0,0,0,0,0,0,0,0,0,0,0,0,0,0,0,0,0,0,0,0,0,0,0,0,0,0,0,0,0,0,0,0,0,0,0,0,0,0,0,0,0,0,0,0,0,0,0,0,0,0],"sum_hessian":[2.71E2,9.7E1,1.74E2,4.7E1,5E1,9.7E1,7.7E1,2.5E1,2.2E1,2.9E1,2.1E1,9.3E1,4E0,7.3E1,4E0,2.2E1,3E0,1.3E1,9E0,2.6E1,3E0,2E1,1E0,6.4E1,2.9E1,2E0,2E0,6.6E1,7E0,1E0,3E0,7E0,6E0,4E0,5E0,1E0,2E0,3E0,1.7E1,2.1E1,4.3E1,2.6E1,3E0,1E0,1E0,6E0,1E0,3E0,1.8E1,1E0,4.2E1,1E0,2.5E1,1E0,5E0],"tree_param":{"num_deleted":"0","num_feature":"4","num_nodes":"55","size_leaf_vector":"0"}},{"base_weights":[2.0879931E0,3.951369E0,9.289453E-1,7.014268E0,9.854573E-1,1.7276564E0,-1.7109124E-1,5.742528E0,2.0521584E1,-2.0048425E-1,2.3691688E0,1.3850634E0,7.822871E0,-2.4636087E-1,8.867938E-1,3.3948898E0,8.859477E0,-2.4310249E-1,1.3731E-1,2.7738438E0,6.253905E-1,2.017064E0,-3.0440161E-2,1.2993783E1,4.4335444E-2,2.6386874E0,-2.1085146E-1,3.8208354E0,-2.2247732E-1,4.5800033E0,1.0811501E1,5.9398067E-1,-2.129071E-1,2.9387772E0,-1.7994483E-1,-1.4059539E-1,8.067068E-1,1.0063277E0,2.47659E0,-1.8546613E-1,1.0235951E0,-1.8022513E-1,2.467283E-1,3.316747E0,5.2746563E0,2.150736E0,1.1354003E1,-1.2414521E-1,1.0704561E0,2.8272514E0,5.7001084E-1,9.422955E0,2.0959082E0,6.576485E-1,-2.4318779E-1,1.1674889E0,2.9595697E-1],"categories":[],"categories_nodes":[],"categories_segments":[],"categories_sizes":[],"default_left":[1,1,1,1,1,1,1,1,0,1,1,1,1,0,1,1,1,0,1,1,1,1,1,0,1,0,0,1,0,0,1,0,0,0,0,0,1,1,1,1,1,0,0,0,0,0,0,0,0,0,0,0,0,0,0,0,0],"id":2,"left_children":[1,3,5,7,9,11,13,15,-1,17,19,21,23,-1,25,27,29,-1,31,33,35,37,39,-1,41,-1,-1,43,-1,-1,45,-1,-1,-1,-1,-1,47,49,51,53,55,-1,-1,-1,-1,-1,-1,-1,-1,-1,-1,-1,-1,-1,-1,-1,-1],"loss_changes":[5.837792E2,9.3785376E2,1.487809E2,7.582217E2,8.908903E1,1.9380621E2,5.9515867E0,3.2116162E2,0E0,4.6526647E-1,1.5906845E1,8.415375E1,2.0053455E2,0E0,1.017116E1,4.5533264E1,1.17555786E2,0E0,7.661982E-1,1.02724E1,9.467337E-1,2.769757E1,5.0919275E0,0E0,1.8081501E-1,0E0,0E0,1.5595093E0,0E0,0E0,3.666089E1,0E0,0E0,0E0,0E0,0E0,1.3604498E0,1.5867434E1,9.660199E1,1.4739133E0,7.328367E-2,0E0,0E0,0E0,0E0,0E0,0E0,0E0,0E0,0E0,0E0,0E0,0E0,0E0,0E0,0E0,0E0],"parents":[2147483647,0,0,1,1,2,2,3,3,4,4,5,5,6,6,7,7,9,9,10,10,11,11,12,12,14,14,15,15,16,16,18,18,19,19,20,20,21,21,22,22,24,24,27,27,30,30,36,36,37,37,38,38,39,39,40,40],"right_children":[2,4,6,8,10,12,14,16,-1,18,20,22,24,-1,26,28,30,-1,32,34,36,38,40,-1,42,-1,-1,44,-1,-1,46,-1,-1,-1,-1,-1,48,50,52,54,56,-1,-1,-1,-1,-1,-1,-1,-1,-1,-1,-1,-1,-1,-1,-1,-1],"split_conditions":[-5.548394E-1,1.7866307E-1,1.7924851E-1,1.6491577E-1,-9.567644E-1,6.532707E-1,3.5298228E0,-8.620083E-3,6.1564755E0,-1.091687E0,4.6986836E-1,2.9717392E-1,-6.989152E-2,-7.390826E-2,3.6455827E0,-2.1418625E-1,-7.5052416E-1,-7.293075E-2,-1.0916147E0,2.8192894E0,-9.860051E-1,1.2896703E-1,-6.7479134E-1,3.898135E0,-5.22724E-1,7.9160625E-1,-6.3255444E-2,3.1030402E-1,-6.6743195E-2,1.374001E0,-1.0329559E0,1.7819421E-1,-6.3872136E-2,8.816332E-1,-5.398345E-2,-4.217862E-2,1.664629E-1,5.4425508E-2,1.6392002E-1,-1.5844646E0,-5.2569002E-2,-5.406754E-2,7.401849E-2,9.9502414E-1,1.582397E0,6.452209E-1,3.4062011E0,-3.7243564E-2,3.2113686E-1,8.4817547E-1,1.7100325E-1,2.8268864E0,6.287725E-1,1.9729456E-1,-7.295634E-2,3.502467E-1,8.8787094E-2],"split_indices":[1,3,0,3,1,2,0,3,0,1,3,2,1,0,0,3,0,0,1,0,2,2,0,0,0,0,0,0,0,0,1,0,0,0,0,0,0,3,2,0,0,0,0,0,0,0,0,0,0,0,0,0,0,0,0,0,0],"split_type":[0,0,0,0,0,0,0,0,0,0,0,0,0,0,0,0,0,0,0,0,0,0,0,0,0,0,0,0,0,0,0,0,0,0,0,0,0,0,0,0,0,0,0,0,0,0,0,0,0,0,0,0,0,0,0,0,0],"sum_hessian":[2.71E2,1.03E2,1.68E2,5E1,5.3E1,9.7E1,7.1E1,4.7E1,3E0,2.9E1,2.4E1,9.3E1,4E0,6.7E1,4E0,2.8E1,1.9E1,2.6E1,3E0,1.9E1,5E0,6.4E1,2.9E1,2E0,2E0,1E0,3E0,2.5E1,3E0,7E0,1.2E1,1E0,2E0,1.8E1,1E0,1E0,4E0,2.1E1,4.3E1,2.6E1,3E0,1E0,1E0,2.1E1,4E0,1E0,1.1E1,1E0,3E0,3E0,1.8E1,1E0,4.2E1,1E0,2.5E1,2E0,1E0],"tree_param":{"num_deleted":"0","num_feature":"4","num_nodes":"57","size_leaf_vector":"0"}},{"base_weights":[1.5528233E0,3.2192955E0,8.416928E-1,1.0403314E0,7.3066087E0,3.9844077E-2,1.3666985E0,2.7743795E0,-1.4722598E-1,1.5904226E1,5.6387253E0,8.0785966E-1,-1.7484625E-1,2.5956528E0,5.2201915E-1,2.3973265E0,5.346246E0,-1.8370365E-1,9.378969E-2,6.4861584E0,9.5176065E-1,-2.1108673E0,1.1222093E0,5.7471285E0,1.9942874E0,1.585572E0,-1.8266691E-1,5.048836E-1,-1.3520467E-1,3.4781833E0,8.4522915E0,3.6158862E0,7.1490514E-1,1.0395027E1,1.8089639E0,6.564808E0,1.4606986E0,1.0135974E0,1.9512032E0,-9.700917E-1,-1.408213E-1,6.962744E-1,3.7099204E0,1.8281257E0,8.888295E0,-1.1405955E-2,1.0792012E0,-1.5319136E-1,2.3378005E0,-9.489143E-1,1.5514697E0,-1.9865936E-1,1.7674898E-1],"categories":[],"categories_nodes":[],"categories_segments":[],"categories_sizes":[],"default_left":[1,1,1,1,1,1,1,1,1,0,1,1,0,1,1,0,0,0,1,1,0,0,1,1,1,1,1,0,0,1,1,0,1,0,1,0,1,0,0,0,1,0,0,0,0,0,0,0,0,0,0,0,0],"id":3,"left_children":[1,3,5,7,9,11,13,15,17,-1,19,21,-1,23,25,-1,-1,-1,27,29,-1,-1,31,33,35,37,39,-1,-1,41,43,-1,45,-1,47,-1,49,-1,-1,-1,51,-1,-1,-1,-1,-1,-1,-1,-1,-1,-1,-1,-1],"loss_changes":[3.196319E2,7.137936E2,8.0772766E1,1.11609665E2,3.1183533E2,1.2837436E1,1.190614E2,8.5173645E0,3.0735534E-1,0E0,9.312396E1,1.7966347E1,0E0,7.761246E1,5.2752594E1,0E0,0E0,0E0,5.3895354E-1,9.479706E1,0E0,0E0,1.3665945E1,1.0932512E2,9.040071E1,3.8779602E0,1.2802527E0,0E0,0E0,3.8636093E0,1.8408936E1,0E0,3.981193E0,0E0,5.5464287E0,0E0,9.783684E0,0E0,0E0,0E0,8.0655414E-1,0E0,0E0,0E0,0E0,0E0,0E0,0E0,0E0,0E0,0E0,0E0,0E0],"parents":[2147483647,0,0,1,1,2,2,3,3,4,4,5,5,6,6,7,7,8,8,10,10,11,11,13,13,14,14,18,18,19,19,22,22,23,23,24,24,25,25,26,26,29,29,30,30,32,32,34,34,36,36,40,40],"right_children":[2,4,6,8,10,12,14,16,18,-1,20,22,-1,24,26,-1,-1,-1,28,30,-1,-1,32,34,36,38,40,-1,-1,42,44,-1,46,-1,48,-1,50,-1,-1,-1,52,-1,-1,-1,-1,-1,-1,-1,-1,-1,-1,-1,-1],"split_conditions":[-7.60926E-1,-1.0415137E0,1.7967982E-2,-2.1418625E-1,-1.0330704E0,1.6648288E-1,4.3604442E-1,2.619279E-1,7.155596E-1,4.771268E0,-6.03047E-1,5.4422528E-2,-5.2453876E-2,-2.1034017E-1,-1.5844646E0,7.19198E-1,1.6038738E0,-5.5111095E-2,-2.8999743E-1,-7.5052416E-1,2.855282E-1,-6.332602E-1,5.4425508E-2,6.823511E-1,1.6392002E-1,1.6873789E0,5.4464173E-2,1.5146509E-1,-4.0561404E-2,-1.0721463E0,-1.0329559E0,1.0847659E0,2.0392315E-1,3.1185083E0,1.2428651E0,1.9694425E0,2.1526875E-1,3.0407923E-1,5.85361E-1,-2.9102752E-1,9.724798E-1,2.0888233E-1,1.1129762E0,5.484377E-1,2.6664886E0,-3.4217867E-3,3.237604E-1,-4.595741E-2,7.013402E-1,-2.846743E-1,4.6544093E-1,-5.959781E-2,5.3024694E-2],"split_indices":[1,1,2,3,1,0,1,0,3,0,0,3,0,3,0,0,0,0,0,0,0,0,3,2,2,1,2,0,0,0,1,0,3,0,0,0,2,0,0,0,1,0,0,0,0,0,0,0,0,0,0,0,0],"split_type":[0,0,0,0,0,0,0,0,0,0,0,0,0,0,0,0,0,0,0,0,0,0,0,0,0,0,0,0,0,0,0,0,0,0,0,0,0,0,0,0,0,0,0,0,0,0,0,0,0,0,0,0,0],"sum_hessian":[2.71E2,8E1,1.91E2,5.3E1,2.7E1,7.6E1,1.15E2,2.1E1,3.2E1,3E0,2.4E1,1.6E1,6E1,4.6E1,6.9E1,2E1,1E0,2.8E1,4E0,2E1,4E0,1E0,1.5E1,6E0,4E1,2.7E1,4.2E1,1E0,3E0,9E0,1.1E1,1E0,1.4E1,2E0,4E0,3E0,3.7E1,1.2E1,1.5E1,1E0,4.1E1,1E0,8E0,1E0,1E1,5E0,9E0,1E0,3E0,1E0,3.6E1,3.5E1,6E0],"tree_param":{"num_deleted":"0","num_feature":"4","num_nodes":"53","size_leaf_vector":"0"}},{"base_weights":[1.1575931E0,2.4013147E0,6.2686896E-1,7.7228487E-1,5.457254E0,4.068738E-1,1.7141299E0,2.0476596E0,-1.01367496E-1,1.5697823E1,4.4965725E0,8.440835E-1,-2.4634115E-2,8.316021E0,9.968032E-1,1.7123759E0,4.5443087E0,-1.2675582E-1,1.1438681E-1,5.121338E0,7.2333807E-1,4.4963127E-1,1.9308954E0,-8.316131E-1,2.7411131E-2,-1.332241E-1,1.4874446E0,4.2915106E-1,-1.3358495E-1,3.4345484E0,7.8547497E0,1.141666E0,-1.5117498E-1,4.368829E0,1.1002741E0,6.509443E-1,-7.385763E-2,-1.8873937E-1,1.832067E-1,-3.8567355E-1,1.6003842E0,5.9183323E-1,3.5846071E0,8.2737184E-1,1.552178E0,-1.0436308E-1,-8.245779E-1,8.623856E-2,5.417917E0,1.3933209E0,-1.7942371E0,8.003308E-1,-4.214606E-1,-1.2581387E-1,3.3154085E-1,-3.3677298E-1,-9.833364E-2,1.1695707E0,1.9142407E0],"categories":[],"categories_nodes":[],"categories_segments":[],"categories_sizes":[],"default_left":[1,1,1,1,1,1,1,1,1,0,1,1,1,0,1,0,0,0,1,1,0,1,1,0,1,1,1,0,0,1,0,1,1,1,1,1,1,1,0,0,1,0,0,0,0,0,0,0,0,0,0,0,0,0,0,0,0,0,0],"id":4,"left_children":[1,3,5,7,9,11,13,15,17,-1,19,21,23,-1,25,-1,-1,-1,27,29,-1,31,33,-1,35,37,39,-1,-1,41,-1,43,45,47,49,51,53,55,-1,-1,57,-1,-1,-1,-1,-1,-1,-1,-1,-1,-1,-1,-1,-1,-1,-1,-1,-1,-1],"loss_changes":[1.7803455E2,3.9902094E2,4.5227455E1,6.0376205E1,2.0487543E2,3.0394966E1,1.4325339E2,1.0634331E1,1.9526136E-1,0E0,5.9944946E1,3.3427433E1,3.4667482E0,0E0,1.683131E1,0E0,0E0,0E0,3.695387E-1,7.906836E1,0E0,2.5119324E1,3.7718086E1,0E0,4.9733424E0,2.1024577E-1,5.059757E0,0E0,0E0,4.703705E0,0E0,2.328373E0,9.542126E-1,2.1996834E1,1.691981E1,2.0995388E0,1.473995E0,8.733168E-2,0E0,0E0,4.6543503E-1,0E0,0E0,0E0,0E0,0E0,0E0,0E0,0E0,0E0,0E0,0E0,0E0,0E0,0E0,0E0,0E0,0E0,0E0],"parents":[2147483647,0,0,1,1,2,2,3,3,4,4,5,5,6,6,7,7,8,8,10,10,11,11,12,12,14,14,18,18,19,19,21,21,22,22,24,24,25,25,26,26,29,29,31,31,32,32,33,33,34,34,35,35,36,36,37,37,40,40],"right_children":[2,4,6,8,10,12,14,16,18,-1,20,22,24,-1,26,-1,-1,-1,28,30,-1,32,34,-1,36,38,40,-1,-1,42,-1,44,46,48,50,52,54,56,-1,-1,58,-1,-1,-1,-1,-1,-1,-1,-1,-1,-1,-1,-1,-1,-1,-1,-1,-1,-1],"split_conditions":[-7.60926E-1,-1.0415137E0,6.739655E-1,-2.1418625E-1,-1.0332758E0,-1.0890515E0,6.823511E-1,2.619279E-1,-1.091687E0,4.709347E0,-6.03047E-1,-1.3124974E0,-6.7479134E-1,2.4948063E0,2.7848377E0,5.1371276E-1,1.3632927E0,-3.8026746E-2,-1.0916147E0,-7.504126E-1,2.1700142E-1,-1.5844646E0,-1.1393446E0,-2.4948394E-1,1.3635051E-1,7.6657677E-1,-7.5433993E-1,1.2874532E-1,-4.0075485E-2,-1.0721463E0,2.356425E0,1.6874402E0,3.5671878E-1,-1.5186468E-1,7.269846E-1,1.9449202E0,5.2032214E-1,2.3534921E-1,5.4962013E-2,-1.1570207E-1,-7.5429076E-1,1.7754997E-1,1.0753822E0,2.4821156E-1,4.6565342E-1,-3.1308923E-2,-2.4737339E-1,2.587157E-2,1.6253752E0,4.179963E-1,-5.382712E-1,2.4009925E-1,-1.2643819E-1,-3.7744164E-2,9.946226E-2,-1.010319E-1,-2.9500093E-2,3.508712E-1,5.742722E-1],"split_indices":[1,1,2,3,1,0,2,0,1,0,0,0,0,0,0,0,0,0,1,0,0,0,0,0,0,1,1,0,0,0,0,1,3,1,1,1,3,1,0,0,1,0,0,0,0,0,0,0,0,0,0,0,0,0,0,0,0,0,0],"split_type":[0,0,0,0,0,0,0,0,0,0,0,0,0,0,0,0,0,0,0,0,0,0,0,0,0,0,0,0,0,0,0,0,0,0,0,0,0,0,0,0,0,0,0,0,0,0,0,0,0,0,0,0,0,0,0,0,0,0,0],"sum_hessian":[2.71E2,8E1,1.91E2,5.3E1,2.7E1,1.6E2,3.1E1,2.1E1,3.2E1,1E0,2.6E1,7.9E1,8.1E1,2E0,2.9E1,2E1,1E0,2.9E1,3E0,2.2E1,4E0,5.9E1,2E1,4E0,7.7E1,9E0,2E1,1E0,2E0,1.5E1,7E0,2.7E1,3.2E1,4E0,1.6E1,1E1,6.7E1,8E0,1E0,1E0,1.9E1,1E0,1.4E1,1.7E1,1E1,3.1E1,1E0,1E0,3E0,1.5E1,1E0,9E0,1E0,6E1,7E0,2E0,6E0,1E1,9E0],"tree_param":{"num_deleted":"0","num_feature":"4","num_nodes":"59","size_leaf_vector":"0"}},{"base_weights":[8.6760956E-1,1.8100975E0,4.6547875E-1,5.7629657E-1,4.124924E0,2.965635E-1,1.3007872E0,1.51868E0,-6.942261E-2,1.3343149E1,3.2893176E0,6.1543536E-1,-1.8147586E-2,6.652817E0,7.2222465E-1,1.2231256E0,3.8626623E0,-9.3636155E-2,8.490051E-2,3.741865E0,5.4973704E-1,3.2199493E-1,1.4245301E0,-6.32026E-1,2.1436255E-2,-1.00813866E-1,1.0797561E0,3.647784E-1,-7.626356E-2,2.0706258E0,5.3767962E0,-5.2025508E-2,9.25942E-1,6.5254897E-1,3.2457247E0,7.22308E-1,-2.620962E-2,-1.4662111E-1,1.5572569E-1,-3.278225E-1,1.1665262E0,2.2168972E0,1.5768337E-1,1.2254486E0,5.669386E0,-1.5545589E-2,-7.0089126E-1,7.152308E-1,1.2316216E0,2.8427303E-1,8.4508723E-1,4.5049105E0,-1.5251015E0,1.0820057E0,-3.582415E-1,-8.1882216E-2,1.9822806E-1,-8.384104E-2,-3.2443085E-1,8.8893217E-1,1.4718008E0],"categories":[],"categories_nodes":[],"categories_segments":[],"categories_sizes":[],"default_left":[1,1,1,1,1,1,1,1,1,0,1,1,1,0,1,0,0,0,1,1,0,1,1,0,1,1,1,0,0,1,1,1,1,1,1,1,1,1,0,0,1,0,0,0,0,0,0,0,0,0,0,0,0,0,0,0,0,0,0,0,0],"id":5,"left_children":[1,3,5,7,9,11,13,15,17,-1,19,21,23,-1,25,-1,-1,-1,27,29,-1,31,33,-1,35,37,39,-1,-1,41,43,45,47,49,51,53,55,57,-1,-1,59,-1,-1,-1,-1,-1,-1,-1,-1,-1,-1,-1,-1,-1,-1,-1,-1,-1,-1,-1,-1],"loss_changes":[1.022464E2,2.2896164E2,2.6704723E1,3.296524E1,1.7178879E2,1.6167923E1,9.428266E1,1.0516525E1,1.3126121E-1,0E0,3.1417267E1,1.8534996E1,2.006121E0,0E0,8.936722E0,0E0,0E0,0E0,2.5335062E-1,5.1711E1,0E0,1.3601486E1,2.7406494E1,0E0,2.623636E0,1.4034641E-1,2.9472618E0,0E0,0E0,3.2879486E0,6.413513E0,8.8858587E-1,6.0054016E-1,8.9427996E-1,4.291458E1,2.3309755E0,9.408634E-1,7.326557E-2,0E0,0E0,3.8651657E-1,0E0,0E0,0E0,0E0,0E0,0E0,0E0,0E0,0E0,0E0,0E0,0E0,0E0,0E0,0E0,0E0,0E0,0E0,0E0,0E0],"parents":[2147483647,0,0,1,1,2,2,3,3,4,4,5,5,6,6,7,7,8,8,10,10,11,11,12,12,14,14,18,18,19,19,21,21,22,22,24,24,25,25,26,26,29,29,30,30,31,31,32,32,33,33,34,34,35,35,36,36,37,37,40,40],"right_children":[2,4,6,8,10,12,14,16,18,-1,20,22,24,-1,26,-1,-1,-1,28,30,-1,32,34,-1,36,38,40,-1,-1,42,44,46,48,50,52,54,56,58,-1,-1,60,-1,-1,-1,-1,-1,-1,-1,-1,-1,-1,-1,-1,-1,-1,-1,-1,-1,-1,-1,-1],"split_conditions":[-7.60926E-1,-1.0415137E0,6.739655E-1,-2.1418625E-1,-1.0332758E0,-1.0890515E0,6.823511E-1,2.619279E-1,7.155596E-1,4.002945E0,-6.03047E-1,-1.3124974E0,-6.7479134E-1,1.9958451E0,2.7848377E0,3.669377E-1,1.1587987E0,-2.8090848E-2,-2.8999743E-1,-7.5048083E-1,1.6492112E-1,1.6640518E0,-3.5377843E-3,-1.8960781E-1,-3.5836327E-1,7.6657677E-1,-7.5433993E-1,1.09433524E-1,-2.287907E-2,-7.505002E-1,-1.0331731E0,3.5671878E-1,1.6874694E0,-1.101903E0,7.269846E-1,1.9449202E0,2.6596594E-1,2.150289E0,4.6717707E-2,-9.8346755E-2,-7.542776E-1,6.650692E-1,4.7305014E-2,3.676346E-1,1.7008158E0,-4.663677E-3,-2.1026738E-1,2.1456926E-1,3.694865E-1,8.528191E-2,2.5352618E-1,1.3514732E0,-4.5753047E-1,3.2460174E-1,-1.0747246E-1,-2.4564667E-2,5.9468422E-2,-2.5152313E-2,-9.732926E-2,2.6667967E-1,4.4154027E-1],"split_indices":[1,1,2,3,1,0,2,0,3,0,0,0,0,0,0,0,0,0,0,0,0,1,1,0,0,1,1,0,0,0,1,3,1,0,1,1,3,0,0,0,1,0,0,0,0,0,0,0,0,0,0,0,0,0,0,0,0,0,0,0,0],"split_type":[0,0,0,0,0,0,0,0,0,0,0,0,0,0,0,0,0,0,0,0,0,0,0,0,0,0,0,0,0,0,0,0,0,0,0,0,0,0,0,0,0,0,0,0,0,0,0,0,0,0,0,0,0,0,0,0,0,0,0,0,0],"sum_hessian":[2.71E2,8E1,1.91E2,5.3E1,2.7E1,1.6E2,3.1E1,2.1E1,3.2E1,1E0,2.6E1,7.9E1,8.1E1,2E0,2.9E1,2E1,1E0,2.8E1,4E0,2.2E1,4E0,5.9E1,2E1,4E0,7.7E1,9E0,2E1,1E0,3E0,1.2E1,1E1,3.7E1,2.2E1,1.5E1,5E0,4E0,7.3E1,8E0,1E0,1E0,1.9E1,1.1E1,1E0,1E0,9E0,3.6E1,1E0,1.5E1,7E0,6E0,9E0,4E0,1E0,3E0,1E0,5.9E1,1.4E1,7E0,1E0,1.2E1,7E0],"tree_param":{"num_deleted":"0","num_feature":"4","num_nodes":"61","size_leaf_vector":"0"}},{"base_weights":[6.541177E-1,1.3724126E0,3.4768018E-1,4.3274465E-1,3.1356144E0,2.1793175E-1,9.8961204E-1,1.1324277E0,-4.68242E-2,1.1341677E1,2.4116242E0,4.5082822E-1,-1.1942024E-2,5.3222528E0,5.2336085E-1,8.736611E-1,3.2832632E0,-6.6513956E-2,7.674125E-2,9.6140075E-1,2.9716444E0,2.479782E-1,1.1357573E0,-5.4878324E-1,1.5390974E-2,-7.814609E-2,7.848708E-1,-5.5770375E-2,-9.840263E-2,3.1006163E-1,-5.9104256E-2,1.5216203E0,2.0890102E-1,3.6248162E0,4.178002E-1,6.181749E-1,-4.6840876E-2,5.536367E0,5.5122924E-1,2.8244722E-1,-4.1490518E-2,-2.5547609E-2,-2.7576622E-1,-2.7864912E-1,8.5197926E-1,1.7052352E-1,1.8167636E0,3.4247446E-1,-1.6269636E-1,2.9869223E0,6.277666E0,2.887715E-1,7.354977E-1,-1.2674674E-1,4.7392482E-1,7.477231E-1,-1.2963363E0,4.2383742E-1,-5.682261E-2,-8.009928E-2,3.5794693E-1,-6.1832767E-2,1.3236684E-1,5.516688E-1,1.0062138E0],"categories":[],"categories_nodes":[],"categories_segments":[],"categories_sizes":[],"default_left":[1,1,1,1,1,1,1,1,1,0,1,1,1,0,1,0,0,1,1,1,1,1,1,0,1,1,1,0,0,0,0,1,1,1,0,1,1,0,1,1,1,1,0,0,1,0,0,0,0,0,0,0,0,0,0,0,0,0,0,0,0,0,0,0,0],"id":6,"left_children":[1,3,5,7,9,11,13,15,17,-1,19,21,23,-1,25,-1,-1,27,29,31,33,35,37,-1,39,41,43,-1,-1,-1,-1,45,47,49,-1,51,53,-1,55,57,59,61,-1,-1,63,-1,-1,-1,-1,-1,-1,-1,-1,-1,-1,-1,-1,-1,-1,-1,-1,-1,-1,-1,-1],"loss_changes":[5.939344E1,1.3284583E2,1.57759495E1,1.817252E1,1.3899924E2,8.624805E0,6.1857697E1,9.3759575E0,8.53925E-2,0E0,1.9071228E1,1.0833387E1,1.2116716E0,0E0,4.7803364E0,0E0,0E0,4.4474006E-3,1.7680359E-1,3.4762173E0,3.0179428E1,6.9048424E0,4.324923E1,0E0,1.211773E0,9.690003E-2,1.7361994E0,0E0,0E0,0E0,0E0,1.6840353E0,3.0389702E-1,6.63266E0,0E0,8.697119E-1,1.5581088E0,0E0,7.1409E0,6.9565547E-1,1.0465089E0,5.9754167E-2,0E0,0E0,3.7126637E-1,0E0,0E0,0E0,0E0,0E0,0E0,0E0,0E0,0E0,0E0,0E0,0E0,0E0,0E0,0E0,0E0,0E0,0E0,0E0,0E0],"parents":[2147483647,0,0,1,1,2,2,3,3,4,4,5,5,6,6,7,7,8,8,10,10,11,11,12,12,14,14,17,17,18,18,19,19,20,20,21,21,22,22,24,24,25,25,26,26,31,31,32,32,33,33,35,35,36,36,38,38,39,39,40,40,41,41,44,44],"right_children":[2,4,6,8,10,12,14,16,18,-1,20,22,24,-1,26,-1,-1,28,30,32,34,36,38,-1,40,42,44,-1,-1,-1,-1,46,48,50,-1,52,54,-1,56,58,60,62,-1,-1,64,-1,-1,-1,-1,-1,-1,-1,-1,-1,-1,-1,-1,-1,-1,-1,-1,-1,-1,-1,-1],"split_conditions":[-7.60926E-1,-1.0415137E0,6.739655E-1,-2.1418625E-1,-1.0332758E0,-1.0890515E0,6.823511E-1,2.619279E-1,7.155596E-1,3.4025033E0,-7.505402E-1,-1.1917412E0,-8.487017E-1,1.5966759E0,2.7848377E0,2.6209834E-1,9.84979E-1,-8.2707405E-1,-2.8999743E-1,-7.506889E-1,-6.03047E-1,-1.5844646E0,-1.1393446E0,-1.6463497E-1,1.6648288E-1,2.150289E0,-7.5433993E-1,-1.6731113E-2,-2.952079E-2,9.3018495E-2,-1.7731277E-2,-1.0721463E0,-7.505605E-1,-1.0247742E0,1.2534006E-1,-1.7160184E0,-1.3294322E0,1.6609101E0,7.269846E-1,5.051044E-1,1.7967982E-2,7.6657677E-1,-8.272987E-2,-8.359474E-2,-7.543001E-1,5.115706E-2,5.450291E-1,1.02742344E-1,-4.880891E-2,8.9607674E-1,1.8833E0,8.6631455E-2,2.2064932E-1,-3.8024023E-2,1.4217745E-1,2.2431694E-1,-3.889009E-1,1.2715124E-1,-1.7046783E-2,-2.4029784E-2,1.07384086E-1,-1.8549832E-2,3.9710052E-2,1.6550066E-1,3.0186415E-1],"split_indices":[1,1,2,3,1,0,2,0,3,0,0,0,0,0,0,0,0,0,0,0,0,0,0,0,0,0,1,0,0,0,0,0,0,1,0,0,0,0,1,3,2,1,0,0,1,0,0,0,0,0,0,0,0,0,0,0,0,0,0,0,0,0,0,0,0],"split_type":[0,0,0,0,0,0,0,0,0,0,0,0,0,0,0,0,0,0,0,0,0,0,0,0,0,0,0,0,0,0,0,0,0,0,0,0,0,0,0,0,0,0,0,0,0,0,0,0,0,0,0,0,0,0,0,0,0,0,0,0,0,0,0,0,0],"sum_hessian":[2.71E2,8E1,1.91E2,5.3E1,2.7E1,1.6E2,3.1E1,2.1E1,3.2E1,1E0,2.6E1,7.9E1,8.1E1,2E0,2.9E1,2E1,1E0,2.8E1,4E0,8E0,1.8E1,6.2E1,1.7E1,3E0,7.8E1,9E0,2E1,2.3E1,5E0,1E0,3E0,4E0,4E0,1.4E1,4E0,2.7E1,3.5E1,1E0,1.6E1,1.3E1,6.5E1,8E0,1E0,1E0,1.9E1,1E0,3E0,3E0,1E0,1.3E1,1E0,8E0,1.9E1,3.1E1,4E0,1.5E1,1E0,9E0,4E0,6E1,5E0,7E0,1E0,8E0,1.1E1],"tree_param":{"num_deleted":"0","num_feature":"4","num_nodes":"65","size_leaf_vector":"0"}},{"base_weights":[5.023269E-1,1.0623363E0,2.6345664E-1,3.26553E-1,2.4434066E0,1.6458067E-1,7.526933E-1,2.7907739E0,2.2740214E-1,9.640425E0,1.8197976E0,3.3942673E-1,-8.007912E-3,4.2578025E0,3.7709263E-1,6.2404364E-1,-3.1897083E-2,3.6758723E0,1.4346269E0,1.8011545E-1,8.7815917E-1,-4.06989E-1,1.7670464E-2,1.3425179E0,5.0441856E0,-6.085923E-2,5.6768435E-1,-4.8154663E-2,6.877631E-2,4.589071E0,4.6813893E-1,2.1425169E0,7.759543E-1,1.7516563E-2,5.288272E-1,4.7059116E0,3.7617895E-1,-9.092298E-2,-4.6327478E-1,4.473205E-1,-1.1598733E-2,-1.9483127E-1,-3.012308E-3,-2.3685177E-1,6.197537E-1,-3.973639E-2,-7.380197E-2,2.6355237E-1,-4.58058E-2,1.4494503E-1,2.3277795E0,1.184068E0,3.2186058E-1,4.4749297E-2,-5.767455E-1,3.798434E-1,7.51248E-1,1.4011389E-1,2.0766098E0,7.4319106E-1,-3.6808088E-1,-3.153339E-2,2.6980618E-1,-5.7845622E-2,-2.3440129E-1,1.1251181E-1,-3.558887E-2,4.5484915E-1,8.6102664E-1],"categories":[],"categories_nodes":[],"categories_segments":[],"categories_sizes":[],"default_left":[1,1,1,1,1,1,1,0,1,0,1,1,1,1,1,0,1,1,1,1,1,1,1,0,0,1,1,1,1,0,0,1,1,1,1,0,1,0,0,1,1,1,1,0,1,0,0,0,0,0,0,0,0,0,0,0,0,0,0,0,0,0,0,0,0,0,0,0,0],"id":7,"left_children":[1,3,5,7,9,11,13,-1,15,-1,17,19,21,23,25,-1,27,29,31,33,35,37,39,-1,-1,41,43,45,47,-1,-1,49,51,53,55,-1,57,-1,-1,59,61,63,65,-1,67,-1,-1,-1,-1,-1,-1,-1,-1,-1,-1,-1,-1,-1,-1,-1,-1,-1,-1,-1,-1,-1,-1,-1,-1],"loss_changes":[3.610546E1,8.151176E1,9.16388E0,1.2559168E1,1.08123886E2,4.8611245E0,4.0523094E1,0E0,5.470894E0,0E0,1.4028954E1,6.707923E0,8.4729695E-1,1.0568619E-1,2.5386481E0,0E0,5.73232E-2,9.568863E0,9.527931E0,3.5628455E0,3.281595E1,4.6827793E-2,9.860783E-1,0E0,0E0,7.691181E-2,1.0265155E0,3.3286437E-3,1.2366149E-1,0E0,0E0,3.7334328E0,2.2134008E0,7.378777E-1,3.7738562E-1,0E0,6.5330477E0,0E0,0E0,1.4798206E0,4.2362645E-1,2.702482E-3,3.4111198E-2,0E0,4.0410328E-1,0E0,0E0,0E0,0E0,0E0,0E0,0E0,0E0,0E0,0E0,0E0,0E0,0E0,0E0,0E0,0E0,0E0,0E0,0E0,0E0,0E0,0E0,0E0,0E0],"parents":[2147483647,0,0,1,1,2,2,3,3,4,4,5,5,6,6,8,8,10,10,11,11,12,12,13,13,14,14,16,16,17,17,18,18,19,19,20,20,21,21,22,22,25,25,26,26,27,27,28,28,31,31,32,32,33,33,34,34,36,36,39,39,40,40,41,41,42,42,44,44],"right_children":[2,4,6,8,10,12,14,-1,16,-1,18,20,22,24,26,-1,28,30,32,34,36,38,40,-1,-1,42,44,46,48,-1,-1,50,52,54,56,-1,58,-1,-1,60,62,64,66,-1,68,-1,-1,-1,-1,-1,-1,-1,-1,-1,-1,-1,-1,-1,-1,-1,-1,-1,-1,-1,-1,-1,-1,-1,-1],"split_conditions":[-7.60926E-1,-1.0415137E0,6.739655E-1,-3.2637098E-1,-1.0332758E0,-1.0890515E0,6.823511E-1,8.372322E-1,-2.1418625E-1,2.8921275E0,5.0126746E-2,-1.1917412E0,-6.7479134E-1,-7.3856735E-1,2.7848377E0,1.872131E-1,7.155596E-1,-4.10242E-1,-4.7484547E-1,1.6641252E0,-1.1393446E0,-1.0653921E0,-3.5836327E-1,4.0275538E-1,1.5132557E0,2.3534921E-1,-7.5433993E-1,-8.2707405E-1,-2.8999743E-1,1.3767213E0,1.4044169E-1,-1.0721463E0,1.6477612E-1,3.5671878E-1,1.6874766E0,1.4117736E0,-1.0890574E0,-2.7276896E-2,-1.3898245E-1,1.9449202E0,3.5298228E0,1.0058985E0,6.2162054E-1,-7.105553E-2,-7.5427306E-1,-1.1920918E-2,-2.2140592E-2,7.906571E-2,-1.3741741E-2,4.348351E-2,6.9833386E-1,3.552204E-1,9.6558176E-2,1.34247895E-2,-1.7302366E-1,1.1395303E-1,2.2537442E-1,4.2034168E-2,6.22983E-1,2.2295733E-1,-1.1042427E-1,-9.460017E-3,8.0941856E-2,-1.7353687E-2,-7.032039E-2,3.3753544E-2,-1.06766615E-2,1.3645475E-1,2.58308E-1],"split_indices":[1,1,2,3,1,0,2,0,3,0,3,0,0,0,0,0,3,0,2,1,0,0,0,0,0,1,1,0,0,0,0,0,3,3,1,0,0,0,0,1,0,0,0,0,1,0,0,0,0,0,0,0,0,0,0,0,0,0,0,0,0,0,0,0,0,0,0,0,0],"split_type":[0,0,0,0,0,0,0,0,0,0,0,0,0,0,0,0,0,0,0,0,0,0,0,0,0,0,0,0,0,0,0,0,0,0,0,0,0,0,0,0,0,0,0,0,0,0,0,0,0,0,0,0,0,0,0,0,0,0,0,0,0,0,0,0,0,0,0,0,0],"sum_hessian":[2.71E2,8E1,1.91E2,5.3E1,2.7E1,1.6E2,3.1E1,1E0,5.2E1,1E0,2.6E1,7.9E1,8.1E1,2E0,2.9E1,2E1,3.2E1,3E0,2.3E1,6.2E1,1.7E1,4E0,7.7E1,1E0,1E0,9E0,2E1,2.8E1,4E0,2E0,1E0,1E1,1.3E1,4.3E1,1.9E1,1E0,1.6E1,1E0,3E0,4E0,7.3E1,2E0,7E0,1E0,1.9E1,2.3E1,5E0,1E0,3E0,1E0,9E0,6E0,7E0,4.2E1,1E0,1.3E1,6E0,1.5E1,1E0,3E0,1E0,6.9E1,4E0,1E0,1E0,1E0,6E0,1.3E1,6E0],"tree_param":{"num_deleted":"0","num_feature":"4","num_nodes":"69","size_leaf_vector":"0"}},{"base_weights":[3.9246705E-1,8.2584035E-1,2.0759359E-1,2.4813728E-1,1.9104877E0,1.293324E-1,5.948579E-1,2.3721576E0,1.6330373E-1,8.194361E0,1.3742567E0,2.6580518E-1,-5.3890087E-3,3.6191318E0,2.726019E-1,4.4574562E-1,-2.1380609E-2,3.3637156E0,1.0805514E0,6.4735883E-1,9.072221E-2,1.9357223E-2,-2.732925E-1,1.14114E0,4.2875576E0,-4.9061175E-2,4.127938E-1,2.9209512E-1,5.178309E-1,-3.48828E-2,6.1208215E-2,4.6476555E0,3.97918E-1,2.6457787E0,8.294108E-1,2.7220523E-1,1.4105346E0,-1.0754244E0,1.5382808E-1,-9.305612E-3,1.0845349E0,-1.6560657E-1,7.759994E-4,-2.01324E-1,4.5356587E-1,-2.8312178E-2,-5.535148E-2,2.2401953E-1,-3.5499495E-2,3.7242413E0,2.4442673E-1,-4.2581716E-1,9.6923333E-1,-1.2831292E-1,3.958042E-1,-4.1001517E-2,3.8434289E0,3.3865982E-1,-4.35466E-2,-3.1814414E-1,1.2574646E-2,-4.916878E-2,-1.9924109E-1,9.563506E-2,-2.6437445E-2,3.359576E-1,6.7199224E-1],"categories":[],"categories_nodes":[],"categories_segments":[],"categories_sizes":[],"default_left":[1,1,1,1,1,1,1,0,1,0,1,1,1,1,1,1,1,1,1,1,1,1,0,0,0,1,1,0,0,1,1,0,0,1,1,1,1,0,1,1,0,1,1,0,1,0,0,0,0,0,0,0,0,0,0,0,0,0,0,0,0,0,0,0,0,0,0],"id":8,"left_children":[1,3,5,7,9,11,13,-1,15,-1,17,19,21,23,25,27,29,31,33,35,37,39,-1,-1,-1,41,43,-1,-1,45,47,-1,-1,49,51,53,55,-1,57,59,-1,61,63,-1,65,-1,-1,-1,-1,-1,-1,-1,-1,-1,-1,-1,-1,-1,-1,-1,-1,-1,-1,-1,-1,-1,-1],"loss_changes":[2.1620983E1,5.028087E1,5.742156E0,9.342779E0,8.308783E1,2.9615474E0,3.0200308E1,0E0,2.774148E0,0E0,1.2141827E1,5.285554E0,5.489176E-1,7.6358795E-2,1.3730886E0,8.133888E-2,3.8934402E-2,9.574333E0,7.632864E0,6.7737503E0,4.2865105E0,2.3304489E0,0E0,0E0,0E0,5.8211453E-2,6.1713004E-1,0E0,0E0,2.3331493E-3,8.6678125E-2,0E0,0E0,6.859003E0,4.4494267E0,9.41852E-1,2.840906E1,0E0,1.9847273E0,5.1081055E-1,0E0,1.9525364E-3,2.317988E-2,0E0,2.8801346E-1,0E0,0E0,0E0,0E0,0E0,0E0,0E0,0E0,0E0,0E0,0E0,0E0,0E0,0E0,0E0,0E0,0E0,0E0,0E0,0E0,0E0,0E0],"parents":[2147483647,0,0,1,1,2,2,3,3,4,4,5,5,6,6,8,8,10,10,11,11,12,12,13,13,14,14,15,15,16,16,17,17,18,18,19,19,20,20,21,21,25,25,26,26,29,29,30,30,33,33,34,34,35,35,36,36,38,38,39,39,41,41,42,42,44,44],"right_children":[2,4,6,8,10,12,14,-1,16,-1,18,20,22,24,26,28,30,32,34,36,38,40,-1,-1,-1,42,44,-1,-1,46,48,-1,-1,50,52,54,56,-1,58,60,-1,62,64,-1,66,-1,-1,-1,-1,-1,-1,-1,-1,-1,-1,-1,-1,-1,-1,-1,-1,-1,-1,-1,-1,-1,-1],"split_conditions":[-7.60926E-1,-1.0415137E0,6.739655E-1,-3.2637098E-1,-1.0332758E0,-1.0890515E0,6.823511E-1,7.116473E-1,-2.1418625E-1,2.4583082E0,5.012086E-2,7.269846E-1,5.508766E-1,-7.3856735E-1,2.7848377E0,-3.1415758E-1,7.155596E-1,-4.1024882E-1,-1.0330704E0,2.311063E-1,5.4464173E-2,3.5298228E0,-8.198775E-2,3.4234202E-1,1.2862673E0,2.3534921E-1,-7.5433993E-1,8.762854E-2,1.5534928E-1,-8.2707405E-1,-2.8999743E-1,1.3942966E0,1.193754E-1,-7.503854E-1,-1.0328935E0,-3.6002137E-2,-1.236238E0,-3.2262734E-1,-1.5844646E0,-6.7479134E-1,3.2536048E-1,1.0058985E0,6.2162054E-1,-6.0397204E-2,-7.5426775E-1,-8.4936535E-3,-1.6605444E-2,6.720586E-2,-1.0649849E-2,1.1172724E0,7.332802E-2,-1.2774515E-1,2.9077002E-1,-3.8493875E-2,1.1874127E-1,-1.2300456E-2,1.1530287E0,1.0159795E-1,-1.306398E-2,-9.544325E-2,3.7723938E-3,-1.4750634E-2,-5.9772328E-2,2.8690519E-2,-7.931233E-3,1.0078728E-1,2.0159768E-1],"split_indices":[1,1,2,3,1,0,2,0,3,0,3,1,3,0,0,0,3,0,1,1,2,0,0,0,0,1,1,0,0,0,0,0,0,0,1,1,0,0,0,0,0,0,0,0,1,0,0,0,0,0,0,0,0,0,0,0,0,0,0,0,0,0,0,0,0,0,0],"split_type":[0,0,0,0,0,0,0,0,0,0,0,0,0,0,0,0,0,0,0,0,0,0,0,0,0,0,0,0,0,0,0,0,0,0,0,0,0,0,0,0,0,0,0,0,0,0,0,0,0,0,0,0,0,0,0,0,0,0,0,0,0,0,0,0,0,0,0],"sum_hessian":[2.71E2,8E1,1.91E2,5.3E1,2.7E1,1.6E2,3.1E1,1E0,5.2E1,1E0,2.6E1,7.9E1,8.1E1,2E0,2.9E1,2E1,3.2E1,2E0,2.4E1,2.4E1,5.5E1,7.5E1,6E0,1E0,1E0,9E0,2E1,8E0,1.2E1,2.8E1,4E0,1E0,1E0,2E0,2.2E1,1.7E1,7E0,2E0,5.3E1,7.4E1,1E0,2E0,7E0,1E0,1.9E1,2.3E1,5E0,1E0,3E0,1E0,1E0,2E0,2E1,4E0,1.3E1,5E0,2E0,2.7E1,2.6E1,4E0,7E1,1E0,1E0,1E0,6E0,1.4E1,5E0],"tree_param":{"num_deleted":"0","num_feature":"4","num_nodes":"67","size_leaf_vector":"0"}},{"base_weights":[3.087972E-1,6.693582E-1,1.6557275E-1,1.9195691E-1,1.7156212E0,1.0491277E-1,4.7317663E-1,2.016334E0,1.1949066E-1,6.965206E0,1.1845434E0,1.9850671E-1,-3.1515457E-2,3.0762622E0,1.9709553E-1,3.235924E-1,-1.4013187E-2,8.7924933E-1,3.9505062E0,3.9779508E-1,6.566084E-2,-4.826434E-2,1.8917334E-1,9.699688E-1,3.6444244E0,-3.9719194E-2,3.0047894E-1,2.200652E-1,3.8289902E-1,-2.5283445E-2,5.4156944E-2,2.2489116E0,6.298375E-1,2.1075521E-1,9.9784404E-1,-9.615892E-1,9.936998E-2,-2.888812E-2,-1.389963E-1,9.2185473E-1,-2.2446069E-1,-1.4076558E-1,3.138103E-3,7.075194E-2,3.8765293E-1,-2.0589665E-2,-4.3695655E-2,1.9041657E-1,-2.7512109E-2,3.1656055E0,2.0776176E-1,-3.4065375E-1,7.5659513E-1,6.931611E-1,1.3431312E-1,3.074743E0,-3.480464E-2,-7.093871E-2,2.266834E-1,-1.5891948E-1,-6.440087E-2,-4.1793462E-2,-1.6935492E-1,8.128977E-2,-1.9639244E-2,1.3958573E-1,-1.711254E-1,2.7908292E-1,5.0399417E-1],"categories":[],"categories_nodes":[],"categories_segments":[],"categories_sizes":[],"default_left":[1,1,1,1,1,1,1,0,1,0,1,1,1,1,1,1,1,1,0,1,1,1,1,0,0,1,1,0,0,1,1,1,1,1,1,0,1,0,1,0,0,1,1,1,1,0,0,0,0,0,0,0,0,0,0,0,0,0,0,0,0,0,0,0,0,0,0,0,0],"id":9,"left_children":[1,3,5,7,9,11,13,-1,15,-1,17,19,21,23,25,27,29,31,-1,33,35,37,39,-1,-1,41,43,-1,-1,45,47,49,51,53,55,-1,57,-1,59,-1,-1,61,63,65,67,-1,-1,-1,-1,-1,-1,-1,-1,-1,-1,-1,-1,-1,-1,-1,-1,-1,-1,-1,-1,-1,-1,-1,-1],"loss_changes":[1.3935566E1,3.81312E1,3.6075697E0,6.8981786E0,5.8659927E1,2.1131172E0,2.239089E1,0E0,1.4486982E0,0E0,1.594846E1,2.5683951E0,2.604781E-1,5.5171967E-2,7.464162E-1,4.467392E-2,2.6723005E-2,6.0989685E0,0E0,4.166788E0,2.173216E0,1.0849939E-1,1.72223E0,0E0,0E0,4.374749E-2,3.931234E-1,0E0,0E0,1.6065836E-3,6.087973E-2,4.955637E0,2.7180796E0,1.0500588E0,1.9409378E1,0E0,1.2953529E0,0E0,6.11341E-3,0E0,0E0,1.4107153E-3,1.583717E-2,1.40432E-1,4.8811197E-2,0E0,0E0,0E0,0E0,0E0,0E0,0E0,0E0,0E0,0E0,0E0,0E0,0E0,0E0,0E0,0E0,0E0,0E0,0E0,0E0,0E0,0E0,0E0,0E0],"parents":[2147483647,0,0,1,1,2,2,3,3,4,4,5,5,6,6,8,8,10,10,11,11,12,12,13,13,14,14,15,15,16,16,17,17,19,19,20,20,21,21,22,22,25,25,26,26,29,29,30,30,31,31,32,32,33,33,34,34,36,36,38,38,41,41,42,42,43,43,44,44],"right_children":[2,4,6,8,10,12,14,-1,16,-1,18,20,22,24,26,28,30,32,-1,34,36,38,40,-1,-1,42,44,-1,-1,46,48,50,52,54,56,-1,58,-1,60,-1,-1,62,64,66,68,-1,-1,-1,-1,-1,-1,-1,-1,-1,-1,-1,-1,-1,-1,-1,-1,-1,-1,-1,-1,-1,-1,-1,-1],"split_conditions":[-9.443046E-1,-1.0415137E0,6.739655E-1,-3.2637098E-1,-1.0332758E0,1.6648288E-1,6.823511E-1,6.0490024E-1,-2.1418625E-1,2.089562E0,-1.0247742E0,7.269846E-1,3.5298228E0,-7.3856735E-1,2.7848377E0,-3.1415695E-1,7.155596E-1,-1.0330704E0,1.1851519E0,2.9735488E-1,7.853939E-1,1.406822E-1,3.6455827E0,2.9099065E-1,1.0933274E0,2.3534921E-1,-7.543192E-1,6.6019565E-2,1.1486971E-1,-5.08616E-1,-2.8999743E-1,-7.503854E-1,-1.0328935E0,-6.716239E-1,5.4425508E-2,-2.8847677E-1,1.0279993E0,-8.666436E-3,6.91002E-1,2.7655643E-1,-6.733821E-2,1.0058985E0,6.2162054E-1,2.8192894E0,-7.5426775E-1,-6.1768997E-3,-1.3108697E-2,5.7124976E-2,-8.253633E-3,9.496817E-1,6.2328532E-2,-1.0219613E-1,2.2697856E-1,2.0794833E-1,4.029394E-2,9.2242295E-1,-1.0441392E-2,-2.1281613E-2,6.800502E-2,-4.7675848E-2,-1.932026E-2,-1.2538039E-2,-5.0806478E-2,2.4386931E-2,-5.8917734E-3,4.187572E-2,-5.1337622E-2,8.372488E-2,1.5119825E-1],"split_indices":[1,1,2,3,1,0,2,0,3,0,1,1,0,0,0,0,3,1,0,1,1,3,0,0,0,1,1,0,0,0,0,0,1,1,3,0,1,0,1,0,0,0,0,0,1,0,0,0,0,0,0,0,0,0,0,0,0,0,0,0,0,0,0,0,0,0,0,0,0],"split_type":[0,0,0,0,0,0,0,0,0,0,0,0,0,0,0,0,0,0,0,0,0,0,0,0,0,0,0,0,0,0,0,0,0,0,0,0,0,0,0,0,0,0,0,0,0,0,0,0,0,0,0,0,0,0,0,0,0,0,0,0,0,0,0,0,0,0,0,0,0],"sum_hessian":[2.71E2,7.6E1,1.95E2,5.3E1,2.3E1,1.64E2,3.1E1,1E0,5.2E1,1E0,2.2E1,9.7E1,6.7E1,2E0,2.9E1,2E1,3.2E1,2.1E1,1E0,3.8E1,5.9E1,6.3E1,4E0,1E0,1E0,9E0,2E1,9E0,1.1E1,2.8E1,4E0,2E0,1.9E1,3E1,8E0,1E0,5.8E1,5.3E1,1E1,1E0,3E0,2E0,7E0,6E0,1.4E1,2.4E1,4E0,1E0,3E0,1E0,1E0,2E0,1.7E1,3E0,2.7E1,2E0,6E0,2.5E1,3.3E1,7E0,3E0,1E0,1E0,1E0,6E0,5E0,1E0,9E0,5E0],"tree_param":{"num_deleted":"0","num_feature":"4","num_nodes":"69","size_leaf_vector":"0"}},{"base_weights":[2.4499568E-1,5.3643245E-1,1.292527E-1,1.494694E-1,1.3847479E0,2.4902676E-1,2.5208449E-2,1.7138839E0,8.7614715E-2,5.9204254E0,9.301347E-1,1.8596485E-1,2.9622993E0,-3.363949E-2,1.7541121E-1,2.3512852E-1,-8.912693E-3,6.671471E-1,3.3579311E0,6.793067E-2,5.4771E-1,4.3671545E-2,-6.535793E-2,1.08989485E-1,4.8572198E-1,1.6752689E-1,2.9273763E-1,-1.7205196E-2,5.5509254E-2,-1.0784503E-1,9.645095E-1,2.0696545E-1,-5.0938893E-2,2.3529055E0,1.38842E-1,7.273922E-1,-2.0469947E-2,-8.1735086E-1,-3.6296014E-2,1.4124966E-1,-3.4875745E-1,-1.4252897E-2,-2.4869477E-2,1.6185409E-1,-3.3890385E-2,4.8393297E-1,-2.871302E-1,1.1690979E-1,1.2373003E0,2.6220214E-1,-7.6093994E-2,5.8396314E-3,-2.645883E-1,3.0259594E-1,-1.2414415E-1,-2.14746E-2,-6.9489484E-3,7.4971035E-2,-6.0215443E-2,1.00342944E-1,4.0778455E-1],"categories":[],"categories_nodes":[],"categories_segments":[],"categories_sizes":[],"default_left":[1,1,1,1,1,1,1,0,1,0,1,1,0,1,1,1,1,1,0,1,1,1,1,1,0,0,0,1,1,1,1,1,1,0,1,0,1,0,1,1,0,0,0,0,0,0,0,0,0,0,0,0,0,0,0,0,0,0,0,0,0],"id":10,"left_children":[1,3,5,7,9,11,13,-1,15,-1,17,19,-1,21,23,25,27,29,-1,31,33,35,37,39,-1,-1,-1,41,43,45,47,49,51,-1,53,-1,55,-1,57,59,-1,-1,-1,-1,-1,-1,-1,-1,-1,-1,-1,-1,-1,-1,-1,-1,-1,-1,-1,-1,-1],"loss_changes":[9.105703E0,2.5069561E1,2.436236E0,5.0752225E0,4.39807E1,1.5019593E1,9.428478E-1,0E0,7.567693E-1,0E0,1.2444817E1,3.8056402E0,0E0,1.9167256E-1,5.6540275E-1,3.274238E-2,1.8584281E-2,5.173994E0,0E0,1.1509058E0,1.5911224E1,1.0235516E0,1.1723232E0,4.3320376E-1,0E0,0E0,0E0,3.2435637E-4,4.3514058E-2,8.816309E-1,3.5548267E0,5.202807E-1,4.6251166E-1,0E0,8.5580075E-1,0E0,1.496207E-4,0E0,1.482324E-1,2.3165828E-1,0E0,0E0,0E0,0E0,0E0,0E0,0E0,0E0,0E0,0E0,0E0,0E0,0E0,0E0,0E0,0E0,0E0,0E0,0E0,0E0,0E0],"parents":[2147483647,0,0,1,1,2,2,3,3,4,4,5,5,6,6,8,8,10,10,11,11,13,13,14,14,15,15,16,16,17,17,19,19,20,20,21,21,22,22,23,23,27,27,28,28,29,29,30,30,31,31,32,32,34,34,36,36,38,38,39,39],"right_children":[2,4,6,8,10,12,14,-1,16,-1,18,20,-1,22,24,26,28,30,-1,32,34,36,38,40,-1,-1,-1,42,44,46,48,50,52,-1,54,-1,56,-1,58,60,-1,-1,-1,-1,-1,-1,-1,-1,-1,-1,-1,-1,-1,-1,-1,-1,-1,-1,-1,-1,-1],"split_conditions":[-9.443046E-1,-1.0415137E0,4.2476422E-1,-3.2637098E-1,-1.0332758E0,2.9735488E-1,1.6158175E0,5.1416516E-1,-2.1418625E-1,1.7761277E0,-1.0247742E0,-7.114819E-2,8.886898E-1,-3.3076897E-1,2.94511E-1,-3.1415546E-1,-1.091687E0,-7.505402E-1,1.0073794E0,-3.5468608E-1,-6.989152E-2,-1.0890515E0,-3.1414238E-1,1.9449202E0,1.457166E-1,5.0258067E-2,8.782129E-2,-8.2707405E-1,-1.0916147E0,-7.507011E-1,5.0137904E-2,5.051044E-1,-1.5572962E-1,7.058717E-1,2.4493277E-1,2.1821767E-1,1.4579675E-1,-2.4520527E-1,6.196263E-1,-1.0832058E0,-1.0462724E-1,-4.2758696E-3,-7.4608433E-3,4.8556227E-2,-1.0167116E-2,1.451799E-1,-8.613907E-2,3.5072938E-2,3.711901E-1,7.8660645E-2,-2.2828199E-2,1.7518895E-3,-7.937649E-2,9.077878E-2,-3.7243247E-2,-6.44238E-3,-2.0846846E-3,2.2491312E-2,-1.8064633E-2,3.0102884E-2,1.2233537E-1],"split_indices":[1,1,1,3,1,1,1,0,3,0,1,1,0,2,2,0,1,0,0,1,1,0,2,1,0,0,0,0,1,0,3,3,3,0,2,0,3,0,1,0,0,0,0,0,0,0,0,0,0,0,0,0,0,0,0,0,0,0,0,0,0],"split_type":[0,0,0,0,0,0,0,0,0,0,0,0,0,0,0,0,0,0,0,0,0,0,0,0,0,0,0,0,0,0,0,0,0,0,0,0,0,0,0,0,0,0,0,0,0,0,0,0,0,0,0,0,0,0,0,0,0,0,0,0,0],"sum_hessian":[2.71E2,7.6E1,1.95E2,5.3E1,2.3E1,9E1,1.05E2,1E0,5.2E1,1E0,2.2E1,8.9E1,1E0,7.6E1,2.9E1,2E1,3.2E1,2.1E1,1E0,6.8E1,2.1E1,2.2E1,5.4E1,2.5E1,4E0,1.1E1,9E0,2.9E1,3E0,6E0,1.5E1,3.1E1,3.7E1,3E0,1.8E1,1E0,2.1E1,1E0,5.3E1,2.4E1,1E0,2.3E1,6E0,1E0,2E0,1E0,5E0,4E0,1.1E1,2.6E1,5E0,3E1,7E0,1.1E1,7E0,1.9E1,2E0,9E0,4.4E1,2.2E1,2E0],"tree_param":{"num_deleted":"0","num_feature":"4","num_nodes":"61","size_leaf_vector":"0"}},{"base_weights":[1.9251336E-1,4.1982046E-1,9.56155E-2,1.172007E-1,9.884507E-1,1.8764676E-1,1.9178381E-2,1.4568014E0,6.4438395E-2,3.764268E0,5.0478196E-1,1.312716E-1,2.5179548E0,-2.3951385E-2,1.2923883E-1,1.7116503E-1,-5.4312353E-3,1.6641159E0,5.032362E0,1.708708E0,1.9409561E-1,3.2234095E-2,4.1791555E-1,3.9687056E-2,-5.0128344E-2,1.5413974E-1,-2.9644382E-1,9.063809E-2,1.9733328E-1,-1.3499232E-2,4.2449392E-2,2.5051708E0,-8.9969635E-3,2.8542423E0,7.0876396E-1,-1.1953983E0,3.2334024E-1,-3.2317553E-2,1.4385639E-1,2.1169775E0,1.4216049E-1,6.182833E-1,-1.4716556E-2,-6.947482E-1,-2.5325233E-2,1.0214507E-1,3.832852E-1,-1.0427606E-2,-2.6157513E-2,1.3757598E-1,-1.572625E-2,8.068822E-1,2.0720458E-1,1.7425365E0,1.5693323E-1,5.195327E-3,-2.2062413E-1,3.2911435E-1,7.778248E-2,2.7448254E0,4.306407E-1,2.6678833E-1,-3.9805572E-2,-1.5354338E-2,-5.559159E-3,1.1776963E-1,-3.6051787E-2,7.685345E-2,3.5457206E-1],"categories":[],"categories_nodes":[],"categories_segments":[],"categories_sizes":[],"default_left":[1,1,1,1,1,1,1,0,1,1,1,1,0,1,1,1,1,1,0,1,1,1,1,1,1,1,0,0,0,1,1,0,0,0,1,0,1,1,1,1,1,0,1,0,1,1,0,0,0,0,0,0,0,0,0,0,0,0,0,0,0,0,0,0,0,0,0,0,0],"id":11,"left_children":[1,3,5,7,9,11,13,-1,15,17,19,21,-1,23,25,27,29,31,-1,33,35,37,39,41,43,45,-1,-1,-1,47,49,-1,-1,-1,51,-1,53,55,57,59,61,-1,63,-1,65,67,-1,-1,-1,-1,-1,-1,-1,-1,-1,-1,-1,-1,-1,-1,-1,-1,-1,-1,-1,-1,-1,-1,-1],"loss_changes":[5.9508142E0,1.3822533E1,1.3470452E0,3.7228687E0,3.5691998E1,1.1098782E1,5.062649E-1,0E0,3.961481E-1,2.278328E0,9.019431E0,2.4279401E0,0E0,1.3026074E-1,3.6369038E-1,2.6366293E-2,1.3320959E-2,4.2440786E0,0E0,3.7043676E0,4.1577973E0,4.7300026E-1,1.0006597E1,7.3308665E-1,8.617772E-1,3.0636537E-1,0E0,0E0,0E0,8.5480325E-4,2.9833805E-2,0E0,0E0,0E0,2.9659033E-2,0E0,4.449822E0,2.97831E-1,2.6817784E-1,1.994256E0,4.641804E-1,0E0,4.3132342E-5,0E0,8.713119E-2,1.3235715E-1,0E0,0E0,0E0,0E0,0E0,0E0,0E0,0E0,0E0,0E0,0E0,0E0,0E0,0E0,0E0,0E0,0E0,0E0,0E0,0E0,0E0,0E0,0E0],"parents":[2147483647,0,0,1,1,2,2,3,3,4,4,5,5,6,6,8,8,9,9,10,10,11,11,13,13,14,14,15,15,16,16,17,17,19,19,20,20,21,21,22,22,23,23,24,24,25,25,29,29,30,30,34,34,36,36,37,37,38,38,39,39,40,40,42,42,44,44,45,45],"right_children":[2,4,6,8,10,12,14,-1,16,18,20,22,-1,24,26,28,30,32,-1,34,36,38,40,42,44,46,-1,-1,-1,48,50,-1,-1,-1,52,-1,54,56,58,60,62,-1,64,-1,66,68,-1,-1,-1,-1,-1,-1,-1,-1,-1,-1,-1,-1,-1,-1,-1,-1,-1,-1,-1,-1,-1,-1,-1],"split_conditions":[-7.60926E-1,-1.0415137E0,4.2476422E-1,-3.2637098E-1,-1.0330704E0,2.9735488E-1,1.6158175E0,4.3704045E-1,-2.1418625E-1,-7.503582E-1,5.013196E-2,-7.114819E-2,7.553865E-1,-3.3076897E-1,1.9449202E0,-3.141582E-1,7.155596E-1,-7.503854E-1,1.5097086E0,-6.0309184E-1,5.0137904E-2,4.4350696E-1,-7.0034906E-2,-1.0890515E0,-3.1414238E-1,1.6875125E0,-8.893315E-2,2.7191428E-2,5.9199985E-2,-5.08616E-1,-2.8999743E-1,7.515513E-1,-2.6990892E-3,8.5627276E-1,-4.1023716E-1,-3.586195E-1,5.014351E-2,-3.2237226E-1,1.1438773E0,1.4535154E0,-1.3248381E-1,1.8548499E-1,1.4579675E-1,-2.0842448E-1,-7.769996E-2,-1.0403433E0,1.1498556E-1,-3.128282E-3,-7.847254E-3,4.1272797E-2,-4.7178753E-3,2.4206467E-1,6.2161375E-2,5.22761E-1,4.7079973E-2,1.5585982E-3,-6.618724E-2,9.873431E-2,2.3334745E-2,8.2344764E-1,1.2919222E-1,8.0036506E-2,-1.1941672E-2,-4.6063014E-3,-1.6677477E-3,3.533089E-2,-1.0815537E-2,2.3056034E-2,1.0637162E-1],"split_indices":[1,1,1,3,1,1,1,0,3,0,3,1,0,2,1,0,3,0,0,0,3,2,1,0,2,1,0,0,0,0,0,0,0,0,0,0,3,1,2,0,3,0,3,0,2,0,0,0,0,0,0,0,0,0,0,0,0,0,0,0,0,0,0,0,0,0,0,0,0],"split_type":[0,0,0,0,0,0,0,0,0,0,0,0,0,0,0,0,0,0,0,0,0,0,0,0,0,0,0,0,0,0,0,0,0,0,0,0,0,0,0,0,0,0,0,0,0,0,0,0,0,0,0,0,0,0,0,0,0,0,0,0,0,0,0,0,0,0,0,0,0],"sum_hessian":[2.71E2,8E1,1.91E2,5.3E1,2.7E1,8.6E1,1.05E2,1E0,5.2E1,3E0,2.4E1,8.5E1,1E0,7.6E1,2.9E1,2E1,3.2E1,2E0,1E0,4E0,2E1,6.4E1,2.1E1,2.2E1,5.4E1,2.8E1,1E0,6E0,1.4E1,2.8E1,4E0,1E0,1E0,1E0,3E0,1E0,1.9E1,4.1E1,2.3E1,2E0,1.9E1,1E0,2.1E1,1E0,5.3E1,2.4E1,4E0,2.4E1,4E0,1E0,3E0,2E0,1E0,1E0,1.8E1,3.5E1,6E0,5E0,1.8E1,1E0,1E0,1.1E1,8E0,1.9E1,2E0,3E0,5E1,2.3E1,1E0],"tree_param":{"num_deleted":"0","num_feature":"4","num_nodes":"69","size_leaf_vector":"0"}},{"base_weights":[1.5741979E-1,3.4547058E-1,7.726596E-2,9.220739E-2,8.215685E-1,4.6200477E-2,2.3114963E-1,1.2382812E0,4.7219556E-2,3.1996279E0,4.0821624E-1,1.1948268E-1,-1.59482E-2,2.3331013E0,8.80834E-2,1.23929456E-1,-3.0267308E-3,1.4144987E0,4.277508E0,1.4281949E0,1.459253E-1,2.6762847E-2,4.539194E-1,-3.3998922E-1,7.6685995E-3,1.7338893E-1,-1.4468413E-2,8.658225E-2,1.7379588E-1,-9.82793E-3,3.7025567E-2,2.1293945E0,-7.6465607E-3,2.4261055E0,5.721909E-1,-1.0160885E0,2.5483042E-1,-1.1061681E-2,2.3812819E-1,1.6518797E-1,1.6500263E0,-1.05865E-1,-5.388251E-1,5.255408E-1,-5.0559496E-3,2.085944E-1,-1.9494937E-1,1.2563026E-2,-1.9645427E-1,3.752486E-2,9.163141E-2,-7.157252E-3,-1.887265E-2,1.16939604E-1,-1.2187844E-2,6.4550525E-1,1.7612386E-1,1.4811563E0,1.1233134E-1,-2.5899515E-1,9.829893E-3,3.2548273E-1,1.4020379E-1,3.5962597E-1,-1.5400036E-1,3.3477783E-1,2.1402617E0,-2.2353964E-1,9.014235E-3,1.2704337E-1,3.62598E-1,8.353639E-2,6.776601E-4],"categories":[],"categories_nodes":[],"categories_segments":[],"categories_sizes":[],"default_left":[1,1,1,1,1,1,1,0,1,1,1,1,1,0,1,1,1,1,0,1,1,1,1,1,1,1,1,1,0,1,1,0,0,0,1,0,1,1,1,1,1,0,0,0,1,1,0,1,0,0,0,0,0,0,0,0,0,0,0,0,0,0,0,0,0,0,0,0,0,0,0,0,0],"id":12,"left_children":[1,3,5,7,9,11,13,-1,15,17,19,21,23,-1,25,27,29,31,-1,33,35,37,39,41,43,45,47,49,-1,51,53,-1,-1,-1,55,-1,57,59,61,63,65,-1,-1,-1,67,69,-1,71,-1,-1,-1,-1,-1,-1,-1,-1,-1,-1,-1,-1,-1,-1,-1,-1,-1,-1,-1,-1,-1,-1,-1,-1,-1],"loss_changes":[4.07316E0,9.691071E0,9.0717113E-1,2.7257354E0,2.6217192E1,7.351627E-1,9.417479E0,0E0,2.0465761E-1,1.6460915E0,6.4798694E0,2.2825117E0,6.760547E-1,0E0,2.7370396E-1,2.4062186E-2,9.353204E-3,3.06634E0,0E0,2.8828812E0,2.916464E0,4.7432697E-1,5.2530947E0,2.2227103E-1,5.4960144E-1,2.6111335E-1,7.6258145E-2,2.9325485E-5,0E0,5.654341E-4,2.1089453E-2,0E0,0E0,0E0,2.4607182E-3,0E0,3.328626E0,2.6671162E-1,3.1353354E-2,9.242554E-1,1.2178316E0,0E0,0E0,0E0,2.540917E-1,1.5488082E-1,0E0,1.17530115E-2,0E0,0E0,0E0,0E0,0E0,0E0,0E0,0E0,0E0,0E0,0E0,0E0,0E0,0E0,0E0,0E0,0E0,0E0,0E0,0E0,0E0,0E0,0E0,0E0,0E0],"parents":[2147483647,0,0,1,1,2,2,3,3,4,4,5,5,6,6,8,8,9,9,10,10,11,11,12,12,14,14,15,15,16,16,17,17,19,19,20,20,21,21,22,22,23,23,24,24,25,25,26,26,27,27,29,29,30,30,34,34,36,36,37,37,38,38,39,39,40,40,44,44,45,45,47,47],"right_children":[2,4,6,8,10,12,14,-1,16,18,20,22,24,-1,26,28,30,32,-1,34,36,38,40,42,44,46,48,50,-1,52,54,-1,-1,-1,56,-1,58,60,62,64,66,-1,-1,-1,68,70,-1,72,-1,-1,-1,-1,-1,-1,-1,-1,-1,-1,-1,-1,-1,-1,-1,-1,-1,-1,-1,-1,-1,-1,-1,-1,-1],"split_conditions":[-7.60926E-1,-1.0415137E0,6.739655E-1,-3.2637098E-1,-1.0330704E0,-1.1018529E0,6.822907E-1,3.714844E-1,-2.1418625E-1,-7.503582E-1,5.013196E-2,-1.3294322E0,-1.0890574E0,6.999304E-1,2.604288E-1,-3.141541E-1,7.155596E-1,-7.503854E-1,1.2832524E0,-6.0309184E-1,5.0137904E-2,1.6874615E0,2.311063E-1,-1.1018293E0,-1.0890515E0,1.3324318E0,2.8192894E0,-3.141611E-1,5.2138764E-2,-8.2707405E-1,-2.8999743E-1,6.388184E-1,-2.2939683E-3,7.2783166E-1,-4.1023716E-1,-3.0482656E-1,5.014351E-2,6.39568E-1,-1.6404749E0,2.4493277E-1,-1.236238E0,-3.17595E-2,-1.6164753E-1,1.5766226E-1,-6.7479134E-1,-6.156253E-1,-5.8484815E-2,6.2162054E-1,-5.8936283E-2,1.12574585E-2,2.7489426E-2,-2.1471758E-3,-5.6617954E-3,3.5081882E-2,-3.6563533E-3,1.9365159E-1,5.283716E-2,4.4434693E-1,3.3699404E-2,-7.769854E-2,2.948968E-3,9.764482E-2,4.206114E-2,1.078878E-1,-4.6200108E-2,1.0043336E-1,6.420785E-1,-6.706189E-2,2.7042706E-3,3.8113013E-2,1.0877941E-1,2.5060916E-2,2.0329804E-4],"split_indices":[1,1,2,3,1,0,2,0,3,0,3,0,0,0,3,0,3,0,0,0,3,1,1,0,0,2,0,0,0,0,0,0,0,0,0,0,3,1,0,2,0,0,0,0,0,1,0,0,0,0,0,0,0,0,0,0,0,0,0,0,0,0,0,0,0,0,0,0,0,0,0,0,0],"split_type":[0,0,0,0,0,0,0,0,0,0,0,0,0,0,0,0,0,0,0,0,0,0,0,0,0,0,0,0,0,0,0,0,0,0,0,0,0,0,0,0,0,0,0,0,0,0,0,0,0,0,0,0,0,0,0,0,0,0,0,0,0,0,0,0,0,0,0,0,0,0,0,0,0],"sum_hessian":[2.71E2,8E1,1.91E2,5.3E1,2.7E1,1.6E2,3.1E1,1E0,5.2E1,3E0,2.4E1,7.3E1,8.7E1,1E0,3E1,2E1,3.2E1,2E0,1E0,4E0,2E1,5.8E1,1.5E1,5E0,8.2E1,1.6E1,1.4E1,1.3E1,7E0,2.8E1,4E0,1E0,1E0,1E0,3E0,1E0,1.9E1,5E1,8E0,1.3E1,2E0,3E0,2E0,1E0,8.1E1,1.5E1,1E0,1.3E1,1E0,2E0,1.1E1,2.3E1,5E0,1E0,3E0,2E0,1E0,1E0,1.8E1,3E0,4.7E1,3E0,5E0,8E0,5E0,1E0,1E0,4E0,7.7E1,1.1E1,4E0,1E0,1.2E1],"tree_param":{"num_deleted":"0","num_feature":"4","num_nodes":"73","size_leaf_vector":"0"}},{"base_weights":[1.2885939E-1,2.8569734E-1,6.2022228E-2,7.354485E-2,6.846451E-1,1.2025511E-1,1.2975445E-3,1.0525389E0,3.5214048E-2,2.7196836E0,3.3165315E-1,7.601149E-2,9.2798436E-1,-3.3957753E-2,5.5074114E-2,9.107835E-2,-1.4030575E-3,1.2023239E0,3.6358814E0,1.1946003E0,1.103965E-1,1.997984E-1,1.4864516E-2,1.9831362E0,1.6841236E-1,-2.7776283E-1,-2.4807438E-2,-2.5522213E-2,1.1484973E-1,6.3374996E-2,1.2817442E-1,-7.148825E-3,3.2203007E-2,1.8099861E0,-6.500244E-3,2.062189E0,4.6215594E-1,-8.636751E-1,2.0228383E-1,6.406227E-2,8.9281386E-1,-5.296934E-1,3.1916127E-2,-1.1131077E-1,2.98757E-1,3.239603E-1,-3.6820438E-2,-1.1901989E-2,-6.681245E-2,5.6831464E-2,4.6335492E-1,-5.4085674E-3,-1.6673295E-2,9.939867E-2,-9.445578E-3,1.2589827E0,8.040586E-2,2.7698207E-1,1.4990034E-2,2.0640609E-1,1.8192225E0,2.82652E-1,1.4668465E-2,3.7712955E-1,7.100594E-2,-1.936481E-1,-2.7425932E-2,-1.6698612E-1,7.740008E-2],"categories":[],"categories_nodes":[],"categories_segments":[],"categories_sizes":[],"default_left":[1,1,1,1,1,1,1,0,1,1,1,1,1,1,1,1,1,1,0,1,1,1,1,0,1,0,1,1,1,0,0,1,1,0,0,0,0,0,1,1,1,0,1,0,1,0,1,0,0,1,0,0,0,0,0,0,0,0,0,0,0,0,0,0,0,0,0,0,0],"id":13,"left_children":[1,3,5,7,9,11,13,-1,15,17,19,21,23,25,27,29,31,33,-1,35,37,39,41,-1,43,-1,45,47,49,-1,-1,51,53,-1,-1,-1,-1,-1,55,57,59,-1,61,-1,63,-1,65,-1,-1,67,-1,-1,-1,-1,-1,-1,-1,-1,-1,-1,-1,-1,-1,-1,-1,-1,-1,-1,-1],"loss_changes":[2.833548E0,6.8053064E0,6.7878944E-1,1.9893199E0,1.921187E1,3.431676E0,1.8198153E-1,0E0,1.0854401E-1,1.1893005E0,4.641441E0,7.085345E-1,3.6733346E0,1.22501224E-1,1.8600366E-1,1.3458356E-2,6.6022705E-3,2.2154355E0,0E0,2.2242494E0,2.0543094E0,2.8588886E0,6.1118346E-1,0E0,1.7909652E-1,0E0,2.5074396E-1,8.765298E-3,4.184995E-1,0E0,0E0,3.9049727E-4,1.4931899E-2,0E0,0E0,0E0,0E0,0E0,2.474537E0,2.7795622E-1,2.8039718E0,0E0,2.683042E-1,0E0,2.6769847E-2,0E0,7.719488E-2,0E0,0E0,1.049971E-1,0E0,0E0,0E0,0E0,0E0,0E0,0E0,0E0,0E0,0E0,0E0,0E0,0E0,0E0,0E0,0E0,0E0,0E0,0E0],"parents":[2147483647,0,0,1,1,2,2,3,3,4,4,5,5,6,6,8,8,9,9,10,10,11,11,12,12,13,13,14,14,15,15,16,16,17,17,19,19,20,20,21,21,22,22,24,24,26,26,27,27,28,28,31,31,32,32,38,38,39,39,40,40,42,42,44,44,46,46,49,49],"right_children":[2,4,6,8,10,12,14,-1,16,18,20,22,24,26,28,30,32,34,-1,36,38,40,42,-1,44,-1,46,48,50,-1,-1,52,54,-1,-1,-1,-1,-1,56,58,60,-1,62,-1,64,-1,66,-1,-1,68,-1,-1,-1,-1,-1,-1,-1,-1,-1,-1,-1,-1,-1,-1,-1,-1,-1,-1,-1],"split_conditions":[-7.60926E-1,-1.0415137E0,1.3635051E-1,-3.2637098E-1,-1.0330704E0,6.532707E-1,2.7848377E0,3.157617E-1,-2.1418625E-1,-7.503582E-1,5.013196E-2,6.2646145E-1,-7.0034906E-2,1.664629E-1,1.7967982E-2,-3.141541E-1,7.155596E-1,-7.503854E-1,1.0907645E0,-6.0309184E-1,5.0137904E-2,2.9735488E-1,6.39568E-1,5.949409E-1,-7.386053E-1,-8.332885E-2,1.6648288E-1,3.5298395E0,-6.156212E-1,1.90125E-2,3.8452327E-2,-3.0208415E-1,-2.8999743E-1,5.4299587E-1,-1.9500733E-3,6.1865675E-1,1.3864678E-1,-2.5910255E-1,5.014351E-2,-1.3251874E-1,-1.236238E0,-1.5890804E-1,7.269846E-1,-3.3393234E-2,-5.2271825E-1,9.718809E-2,-4.1566798E-1,-3.5705967E-3,-2.0043734E-2,-7.5433993E-1,1.3900648E-1,-1.6225703E-3,-5.0019887E-3,2.9819602E-2,-2.8336735E-3,3.7769482E-1,2.412176E-2,8.309463E-2,4.4970103E-3,6.1921827E-2,5.457668E-1,8.47956E-2,4.4005397E-3,1.1313887E-1,2.1301784E-2,-5.809443E-2,-8.2277795E-3,-5.0095838E-2,2.3220025E-2],"split_indices":[1,1,0,3,1,2,0,0,3,0,3,1,1,0,2,0,3,0,0,0,3,1,1,0,0,0,0,0,1,0,0,0,0,0,0,0,0,0,3,3,0,0,1,0,0,0,1,0,0,1,0,0,0,0,0,0,0,0,0,0,0,0,0,0,0,0,0,0,0],"split_type":[0,0,0,0,0,0,0,0,0,0,0,0,0,0,0,0,0,0,0,0,0,0,0,0,0,0,0,0,0,0,0,0,0,0,0,0,0,0,0,0,0,0,0,0,0,0,0,0,0,0,0,0,0,0,0,0,0,0,0,0,0,0,0,0,0,0,0,0,0],"sum_hessian":[2.71E2,8E1,1.91E2,5.3E1,2.7E1,9.7E1,9.4E1,1E0,5.2E1,3E0,2.4E1,9.3E1,4E0,5.7E1,3.7E1,2E1,3.2E1,2E0,1E0,4E0,2E1,3E1,6.3E1,1E0,3E0,1E0,5.6E1,1.6E1,2.1E1,1.3E1,7E0,2.8E1,4E0,1E0,1E0,1E0,3E0,1E0,1.9E1,2.6E1,4E0,1E0,6.2E1,1E0,2E0,1E0,5.5E1,1.3E1,3E0,1.9E1,2E0,2.5E1,3E0,1E0,3E0,1E0,1.8E1,4E0,2.2E1,3E0,1E0,3E0,5.9E1,1E0,1E0,2E0,5.3E1,1E0,1.8E1],"tree_param":{"num_deleted":"0","num_feature":"4","num_nodes":"69","size_leaf_vector":"0"}},{"base_weights":[1.0594799E-1,1.9152358E-1,2.1465005E-2,5.695781E-2,1.2642525E0,-5.4810923E-1,3.387131E-2,7.0007E-2,-7.5447226E-1,2.277439E0,6.887811E-1,1.3207611E-1,1.271391E-2,4.628796E-2,9.7962E-1,1.0219752E0,2.7737567E0,-4.9160045E-1,1.0057104E0,6.0022194E-2,8.946581E-1,1.08965926E-1,-3.1304385E-3,6.651424E-2,-1.1600933E0,1.5998335E0,-1.3040352E-1,1.5384884E0,-5.525589E-3,-3.2764943E-3,-7.341242E-1,-9.4614156E-2,1.1550777E0,6.649135E-2,-5.2693286E-3,2.058038E-1,-1.3597419E-2,-3.0650446E-2,3.92883E-2,3.9778873E-2,1.0691986E0,1.3281171E0,4.2397308E-1,4.5720577E-2,9.4528794E-2,2.2629653E-1,8.938614E-2,2.793929E-2,-6.2118948E-2,-1.8735234E-2,-1.5797073E-1,2.2800286E-1,2.2925274E-2],"categories":[],"categories_nodes":[],"categories_segments":[],"categories_sizes":[],"default_left":[1,1,1,1,1,0,1,1,0,1,1,1,1,1,1,1,0,1,1,1,0,1,1,1,0,0,0,0,0,0,0,0,1,1,0,1,1,1,1,0,0,0,0,0,0,0,0,0,0,0,0,0,0],"id":14,"left_children":[1,3,5,7,9,-1,11,13,-1,15,17,19,21,23,25,27,-1,29,31,33,-1,35,37,39,-1,-1,-1,-1,-1,-1,-1,-1,41,43,-1,45,47,49,51,-1,-1,-1,-1,-1,-1,-1,-1,-1,-1,-1,-1,-1,-1],"loss_changes":[1.962362E0,1.941559E1,9.9371624E-1,1.3340272E0,7.1772423E0,0E0,2.8089595E-1,2.5436723E0,0E0,2.808323E-1,4.6094804E0,1.2650291E0,1.7267181E-1,2.956434E0,2.273978E0,1.6006541E0,0E0,3.5288513E-1,1.588459E0,1.0065138E-2,0E0,1.9269879E-1,1.15605876E-1,3.0939033E0,0E0,0E0,0E0,0E0,0E0,0E0,0E0,0E0,4.4899368E-1,7.907636E-3,0E0,1.2436509E-3,1.7858956E-2,8.806328E-2,1.152027E-1,0E0,0E0,0E0,0E0,0E0,0E0,0E0,0E0,0E0,0E0,0E0,0E0,0E0,0E0],"parents":[2147483647,0,0,1,1,2,2,3,3,4,4,6,6,7,7,9,9,10,10,11,11,12,12,13,13,14,14,15,15,17,17,18,18,19,19,21,21,22,22,23,23,32,32,33,33,35,35,36,36,37,37,38,38],"right_children":[2,4,6,8,10,-1,12,14,-1,16,18,20,22,24,26,28,-1,30,32,34,-1,36,38,40,-1,-1,-1,-1,-1,-1,-1,-1,42,44,-1,46,48,50,52,-1,-1,-1,-1,-1,-1,-1,-1,-1,-1,-1,-1,-1,-1],"split_conditions":[-6.03047E-1,-7.504126E-1,-5.2598584E-1,-7.5044286E-1,-4.3463248E-1,-1.6443278E-1,-1.0956634E0,-7.5048083E-1,-2.2634168E-1,-7.503582E-1,-1.0248572E0,-1.1942562E0,1.3635051E-1,-7.505002E-1,-7.5045943E-1,-7.503854E-1,8.3212703E-1,-6.530772E-1,-7.386053E-1,-3.1414658E-1,2.6839745E-1,6.9555485E-1,2.7848377E0,-7.5052416E-1,-3.48028E-1,4.7995007E-1,-3.9121058E-2,4.6154654E-1,-1.6576768E-3,-9.829483E-4,-2.2023727E-1,-2.8384248E-2,-6.0309184E-1,-3.141541E-1,-1.5807986E-3,4.7600426E-2,-1.0916147E0,5.203322E-1,-3.4697872E-1,1.1933663E-2,3.207596E-1,3.9843515E-1,1.2719193E-1,1.3716173E-2,2.835864E-2,6.788896E-2,2.6815845E-2,8.381788E-3,-1.8635685E-2,-5.6205704E-3,-4.739122E-2,6.840086E-2,6.8775825E-3],"split_indices":[0,0,0,0,2,0,1,0,0,0,1,1,0,0,0,0,0,0,0,0,0,3,0,0,0,0,0,0,0,0,0,0,0,0,0,2,1,3,3,0,0,0,0,0,0,0,0,0,0,0,0,0,0],"split_type":[0,0,0,0,0,0,0,0,0,0,0,0,0,0,0,0,0,0,0,0,0,0,0,0,0,0,0,0,0,0,0,0,0,0,0,0,0,0,0,0,0,0,0,0,0,0,0,0,0,0,0,0,0],"sum_hessian":[2.71E2,1.34E2,1.37E2,1.2E2,1.4E1,2E0,1.35E2,1.19E2,1E0,4E0,1E1,2.3E1,1.12E2,1.17E2,2E0,2E0,2E0,2E0,8E0,2.2E1,1E0,1.5E1,9.7E1,1.16E2,1E0,1E0,1E0,1E0,1E0,1E0,1E0,1E0,7E0,2E1,2E0,8E0,7E0,5.9E1,3.8E1,1.14E2,2E0,5E0,2E0,1.3E1,7E0,6E0,2E0,4E0,3E0,5.5E1,4E0,2E0,3.6E1],"tree_param":{"num_deleted":"0","num_feature":"4","num_nodes":"53","size_leaf_vector":"0"}},{"base_weights":[8.158408E-2,1.8773298E-1,3.6377598E-2,4.141239E-2,4.6321794E-1,7.779431E-2,-4.987173E-3,7.604594E-1,1.3497175E-2,1.9887276E0,2.006077E-1,4.867668E-1,3.508356E-2,-1.96352E-1,7.547351E-3,-1.5332252E-2,4.1826706E-2,8.6867905E-1,2.6744366E0,8.435399E-1,3.7975855E-2,1.2485083E-1,1.1689817E0,-2.717103E-1,5.292744E-2,-4.5620626E-1,-5.3139906E-2,2.1010505E-1,-1.6411677E-3,5.2869536E-2,8.991295E-3,1.3077145E0,-4.6958923E-3,1.5536442E0,2.776028E-1,2.5168437E-1,-3.4076104E-1,1.6942249E-1,-7.128954E-2,1.5403719E0,2.1310067E-1,7.596779E-2,-3.7762177E-1,-3.9860015E-3,2.2385757E-1,1.4576738E-2,3.98345E-1,-5.178793E-1,1.0110167E-2,-3.4274082E-3,5.601292E-2,1.7640432E-2,-1.1304077E-2,3.391787E-1,4.6437502E-2,6.183571E-2,1.3598585E0,-6.880748E-1,5.2422048E-3,5.7727605E-2,2.6187482E-1,-3.4831697E-1,1.8658422E-2,1.1854658E0,6.0242705E-2,5.551666E-2,-3.3651553E-2,-9.554876E-3,9.920004E-2],"categories":[],"categories_nodes":[],"categories_segments":[],"categories_sizes":[],"default_left":[1,1,1,1,1,1,1,0,1,1,1,1,1,1,1,0,1,1,0,1,1,1,1,1,1,0,0,1,1,1,1,0,0,0,1,1,1,1,0,0,0,0,0,1,1,1,0,0,1,0,0,0,0,0,0,0,0,0,0,0,0,0,0,0,0,0,0,0,0],"id":15,"left_children":[1,3,5,7,9,11,13,-1,15,17,19,21,23,25,27,-1,29,31,-1,33,35,37,39,41,43,-1,-1,45,47,49,51,-1,-1,-1,53,55,57,59,-1,-1,-1,-1,-1,61,63,65,-1,-1,67,-1,-1,-1,-1,-1,-1,-1,-1,-1,-1,-1,-1,-1,-1,-1,-1,-1,-1,-1,-1],"loss_changes":[1.2983953E0,3.2458563E0,3.2932106E-1,1.073643E0,1.0818251E1,1.6598046E0,2.3415264E-1,0E0,4.3927677E-2,7.4888134E-1,2.581997E0,2.0761917E0,4.961275E-1,1.9904289E-1,1.715757E-1,0E0,9.314723E-3,1.1564684E0,0E0,1.5780759E0,1.7854894E0,7.327414E-2,7.3676014E-1,2.1280253E-1,8.180629E-1,0E0,0E0,1.414184E-1,5.4515314E-1,3.7312433E-3,1.6037083E-3,0E0,0E0,0E0,4.1186273E-2,2.8613074E0,9.6498066E-1,4.6841323E-2,0E0,0E0,0E0,0E0,0E0,5.055183E-1,3.232586E0,7.7916095E-3,0E0,0E0,1.5511999E-1,0E0,0E0,0E0,0E0,0E0,0E0,0E0,0E0,0E0,0E0,0E0,0E0,0E0,0E0,0E0,0E0,0E0,0E0,0E0,0E0],"parents":[2147483647,0,0,1,1,2,2,3,3,4,4,5,5,6,6,8,8,9,9,10,10,11,11,12,12,13,13,14,14,16,16,17,17,19,19,20,20,21,21,22,22,23,23,24,24,27,27,28,28,29,29,30,30,34,34,35,35,36,36,37,37,43,43,44,44,45,45,48,48],"right_children":[2,4,6,8,10,12,14,-1,16,18,20,22,24,26,28,-1,30,32,-1,34,36,38,40,42,44,-1,-1,46,48,50,52,-1,-1,-1,54,56,58,60,-1,-1,-1,-1,-1,62,64,66,-1,-1,68,-1,-1,-1,-1,-1,-1,-1,-1,-1,-1,-1,-1,-1,-1,-1,-1,-1,-1,-1,-1],"split_conditions":[-7.60926E-1,-1.0415137E0,6.196263E-1,-3.2637098E-1,-1.0330704E0,-1.1019447E0,6.39568E-1,2.2813784E-1,-3.6731315E-1,-7.503582E-1,5.013196E-2,-1.1917412E0,-1.101903E0,9.879231E-3,7.269846E-1,-4.5996755E-3,4.2003915E-1,-7.503854E-1,8.0233103E-1,-6.0309184E-1,-7.5045943E-1,-1.2080683E0,-1.1393446E0,-1.1019328E0,-7.114819E-2,-1.3686189E-1,-1.5941972E-2,7.269623E-1,7.4154174E-1,-1.2891428E0,5.6099755E-1,3.9231434E-1,-1.4087678E-3,4.6609327E-1,-4.1023716E-1,-7.5048083E-1,-6.030581E-1,-1.3124974E0,-2.1386862E-2,4.621116E-1,6.3930206E-2,2.2790337E-2,-1.1328653E-1,-6.7479134E-1,-7.0034906E-2,-1.2764993E0,1.19503506E-1,-1.553638E-1,1.687403E0,-1.0282225E-3,1.6803877E-2,5.2921297E-3,-3.3912233E-3,1.01753615E-1,1.3931251E-2,1.8550714E-2,4.0795758E-1,-2.0642246E-1,1.5726615E-3,1.7318282E-2,7.856245E-2,-1.0449509E-1,5.5975267E-3,3.5563976E-1,1.8072812E-2,1.6654998E-2,-1.0095466E-2,-2.8664628E-3,2.9760012E-2],"split_indices":[1,1,1,3,1,0,1,0,2,0,3,0,0,0,1,0,2,0,0,0,0,0,0,0,1,0,0,1,1,1,0,0,0,0,0,0,0,0,0,0,0,0,0,0,1,0,0,0,1,0,0,0,0,0,0,0,0,0,0,0,0,0,0,0,0,0,0,0,0],"split_type":[0,0,0,0,0,0,0,0,0,0,0,0,0,0,0,0,0,0,0,0,0,0,0,0,0,0,0,0,0,0,0,0,0,0,0,0,0,0,0,0,0,0,0,0,0,0,0,0,0,0,0,0,0,0,0,0,0,0,0,0,0,0,0,0,0,0,0,0,0],"sum_hessian":[2.71E2,8E1,1.91E2,5.3E1,2.7E1,9.5E1,9.6E1,1E0,5.2E1,3E0,2.4E1,8E0,8.7E1,5E0,9.1E1,2.6E1,2.6E1,2E0,1E0,4E0,2E1,6E0,2E0,4E0,8.3E1,1E0,4E0,3E0,8.8E1,1.9E1,7E0,1E0,1E0,1E0,3E0,1.3E1,7E0,5E0,1E0,1E0,1E0,1E0,3E0,6.3E1,2E1,2E0,1E0,1E0,8.7E1,1E0,1.8E1,5E0,2E0,2E0,1E0,1.2E1,1E0,3E0,4E0,3E0,2E0,3E0,6E1,2E0,1.8E1,1E0,1E0,7.2E1,1.5E1],"tree_param":{"num_deleted":"0","num_feature":"4","num_nodes":"69","size_leaf_vector":"0"}},{"base_weights":[6.765125E-2,1.2839288E-1,7.7398694E-3,3.68432E-2,8.583341E-1,-4.4893166E-1,1.7756596E-2,4.6118397E-2,-5.380902E-1,2.2732716E0,5.948906E-1,8.439735E-2,3.4456681E-3,2.7438221E-2,7.654991E-1,-1.0119359E-2,6.965689E-1,3.185894E-2,6.4639044E-1,1.7956954E-1,-2.9901606E-3,4.4687346E-2,-9.9535465E-1,1.15588E0,-7.631302E-3,8.31313E-1,1.5232106E-2,4.825204E-2,1.9899148E-2,2.6532257E-1,6.2544346E-2,3.016561E-2,-1.9527638E-2,2.3473417E-2,8.429921E-1,1.6134567E0,4.3409503E-1,-8.9458436E-2,1.12306595E-1,5.501187E-2,-2.9132967E-3,2.3898125E-2,-4.062795E-3,-3.7980758E-2,7.3297344E-2,-1.2476727E-2,-8.523254E-2],"categories":[],"categories_nodes":[],"categories_segments":[],"categories_sizes":[],"default_left":[1,1,1,1,1,0,1,1,0,0,1,1,1,1,1,0,1,1,0,1,1,1,0,0,0,1,1,1,1,0,0,1,1,0,0,0,0,0,0,0,0,0,0,0,0,0,0],"id":16,"left_children":[1,3,5,7,9,-1,11,13,-1,-1,15,17,19,21,23,-1,25,27,-1,29,31,33,-1,-1,-1,35,37,39,41,-1,-1,43,45,-1,-1,-1,-1,-1,-1,-1,-1,-1,-1,-1,-1,-1,-1],"loss_changes":[9.8884547E-1,8.98987E0,6.392323E-1,6.70063E-1,4.2389936E0,0E0,1.2941119E-1,1.5915749E0,0E0,0E0,8.6827755E-1,6.880361E-1,1.2862279E-1,2.126269E0,9.1426694E-1,0E0,1.0890112E0,3.5491604E-3,0E0,2.3546636E-2,6.090348E-2,1.9616282E0,0E0,0E0,0E0,2.4064226E0,4.0535115E-2,3.2730866E-3,1.534442E-3,0E0,0E0,1.1153691E-1,3.3219263E-2,0E0,0E0,0E0,0E0,0E0,0E0,0E0,0E0,0E0,0E0,0E0,0E0,0E0,0E0],"parents":[2147483647,0,0,1,1,2,2,3,3,4,4,6,6,7,7,10,10,11,11,12,12,13,13,14,14,16,16,17,17,19,19,20,20,21,21,25,25,26,26,27,27,28,28,31,31,32,32],"right_children":[2,4,6,8,10,-1,12,14,-1,-1,16,18,20,22,24,-1,26,28,-1,30,32,34,-1,-1,-1,36,38,40,42,-1,-1,44,46,-1,-1,-1,-1,-1,-1,-1,-1,-1,-1,-1,-1,-1,-1],"split_conditions":[-6.03047E-1,-7.504126E-1,-5.2598584E-1,-7.5044286E-1,-4.7510952E-1,-1.3467951E-1,-1.0956634E0,-7.5048083E-1,-1.6142708E-1,6.819815E-1,-1.0331731E0,-1.1942562E0,-2.9843166E-1,-7.505002E-1,-7.5045943E-1,-3.0358077E-3,-7.0034906E-2,4.200315E-1,1.9391714E-1,4.7600426E-2,-3.5468608E-1,-7.5052416E-1,-2.986064E-1,3.46764E-1,-2.2893907E-3,-7.06666E-1,-7.386053E-1,-3.1414658E-1,-3.141545E-1,7.959677E-2,1.8763304E-2,-7.543237E-1,5.508766E-1,7.0420257E-3,2.5289765E-1,4.8403704E-1,1.3022852E-1,-2.6837531E-2,3.369198E-2,1.6503561E-2,-8.73989E-4,7.1694376E-3,-1.2188386E-3,-1.1394228E-2,2.1989204E-2,-3.7430183E-3,-2.5569763E-2],"split_indices":[0,0,0,0,2,0,1,0,0,0,1,1,0,0,0,0,1,2,0,2,1,0,0,0,0,0,0,0,0,0,0,1,3,0,0,0,0,0,0,0,0,0,0,0,0,0,0],"split_type":[0,0,0,0,0,0,0,0,0,0,0,0,0,0,0,0,0,0,0,0,0,0,0,0,0,0,0,0,0,0,0,0,0,0,0,0,0,0,0,0,0,0,0,0,0,0,0],"sum_hessian":[2.71E2,1.34E2,1.37E2,1.2E2,1.4E1,2E0,1.35E2,1.19E2,1E0,1E0,1.3E1,2.3E1,1.12E2,1.17E2,2E0,2E0,1.1E1,2.2E1,1E0,3E0,1.09E2,1.16E2,1E0,1E0,1E0,9E0,2E0,8E0,1.4E1,1E0,2E0,3.6E1,7.3E1,1.14E2,2E0,2E0,7E0,1E0,1E0,7E0,1E0,1.2E1,2E0,1.4E1,2.2E1,6.7E1,6E0],"tree_param":{"num_deleted":"0","num_feature":"4","num_nodes":"47","size_leaf_vector":"0"}},{"base_weights":[5.3256325E-2,1.2716977E-1,2.1796713E-2,2.1160978E-3,2.9146558E-1,5.136858E-2,-7.694998E-3,2.5745098E-2,-1.6340386E-2,9.666141E-1,1.1844813E-1,4.0120333E-1,1.5006293E-2,-1.6159204E-1,2.425407E-3,1.3521035E-2,3.783946E-2,-1.7402252E-2,-2.0447047E-3,-1.2768753E-1,1.4298723E0,1.2032757E0,-6.475228E-3,9.2001595E-2,9.889396E-1,-2.1393004E-1,2.8454809E-2,-3.9129633E-1,-3.7391916E-2,1.7330769E-1,-5.2819466E-3,1.640762E-2,-9.115696E-3,2.434214E-2,4.6468355E-2,-2.3670018E-1,4.5168877E-2,1.805077E0,5.7804364E-1,1.993314E-1,-8.847412E-2,1.2870754E-1,-6.4117074E-2,1.3057947E0,1.7761469E-1,6.1051607E-2,-2.9793835E-1,4.2592525E-1,8.475345E-3,7.695546E-3,3.3507204E-1,-4.4371846E-1,4.7425414E-3,-1.0681152E-4,2.0089362E-2,8.6953926E-1,-2.4738312E-3,9.6291065E-1,-2.1568012E-1,-4.321866E-1,-2.3962327E-3,3.945741E-2,2.0480521E-1,-8.306885E-2,-3.418719E-1,-3.2529607E-2,7.5661704E-2,4.366815E-2,-3.2124832E-2,1.2766993E-2,-1.6696268E-1],"categories":[],"categories_nodes":[],"categories_segments":[],"categories_sizes":[],"default_left":[1,1,1,1,1,1,1,1,1,1,1,1,1,1,1,1,1,0,0,1,1,0,1,1,1,1,1,0,0,1,1,1,0,0,0,0,0,0,1,1,1,1,0,0,0,0,1,0,1,1,0,0,1,0,0,0,0,0,0,0,0,0,0,0,0,0,0,0,0,0,0],"id":17,"left_children":[1,3,5,7,9,11,13,15,17,19,21,23,25,27,29,31,33,-1,-1,35,37,-1,39,41,43,45,47,-1,-1,49,51,53,-1,-1,-1,-1,-1,-1,55,57,59,61,-1,-1,-1,-1,63,-1,65,67,-1,-1,69,-1,-1,-1,-1,-1,-1,-1,-1,-1,-1,-1,-1,-1,-1,-1,-1,-1,-1],"loss_changes":[6.297066E-1,1.6635927E0,1.6784325E-1,2.0917771E-2,3.973943E0,1.2151754E0,1.5146947E-1,2.5930582E-3,3.7428038E-4,3.731186E0,3.93788E0,1.5445777E0,2.7702647E-1,1.5654449E-1,1.22084014E-1,9.336807E-4,3.3530407E-5,0E0,4.196745E-7,6.722208E-2,5.5463696E-1,0E0,4.7328538E-1,4.8365742E-2,5.39289E-1,1.3369335E-1,6.634549E-1,0E0,0E0,1.0458201E-1,3.932684E-1,6.7096646E-4,0E0,0E0,0E0,0E0,0E0,0E0,5.0980604E-1,2.742834E0,5.906853E-1,3.2669283E-2,0E0,0E0,0E0,0E0,9.360999E-3,0E0,2.2561409E-1,5.7001603E-3,0E0,0E0,1.2338155E-1,0E0,0E0,0E0,0E0,0E0,0E0,0E0,0E0,0E0,0E0,0E0,0E0,0E0,0E0,0E0,0E0,0E0,0E0],"parents":[2147483647,0,0,1,1,2,2,3,3,4,4,5,5,6,6,7,7,8,8,9,9,10,10,11,11,12,12,13,13,14,14,15,15,16,16,19,19,20,20,22,22,23,23,24,24,25,25,26,26,29,29,30,30,31,31,38,38,39,39,40,40,41,41,46,46,48,48,49,49,52,52],"right_children":[2,4,6,8,10,12,14,16,18,20,22,24,26,28,30,32,34,-1,-1,36,38,-1,40,42,44,46,48,-1,-1,50,52,54,-1,-1,-1,-1,-1,-1,56,58,60,62,-1,-1,-1,-1,64,-1,66,68,-1,-1,70,-1,-1,-1,-1,-1,-1,-1,-1,-1,-1,-1,-1,-1,-1,-1,-1,-1,-1],"split_conditions":[-7.60926E-1,-1.110304E0,6.196263E-1,-2.1418625E-1,-4.75023E-1,-1.1019447E0,6.39568E-1,-3.1415546E-1,-5.08616E-1,-6.351941E-1,5.012086E-2,-1.1917412E0,-1.101903E0,9.879231E-3,7.269846E-1,-3.1415623E-1,-3.1415278E-1,-5.220676E-3,-6.134114E-4,-6.9537747E-1,-4.7510952E-1,3.6098272E-1,-4.7481993E-1,-1.2080683E0,-1.1393446E0,-1.1019328E0,-1.1018758E0,-1.17388904E-1,-1.12175755E-2,7.269623E-1,7.4154174E-1,-3.141611E-1,-2.7347088E-3,7.3026423E-3,1.3940507E-2,-7.101005E-2,1.3550663E-2,5.415231E-1,-7.503854E-1,-7.5051236E-1,-4.7460008E-1,-1.3124974E0,-1.9235123E-2,3.9173844E-1,5.328441E-2,1.8315483E-2,-1.1019216E0,1.2777758E-1,6.31531E-1,-1.2764993E0,1.0052162E-1,-1.3311554E-1,3.5671878E-1,-3.204346E-5,6.0268086E-3,2.6086178E-1,-7.4214936E-4,2.888732E-1,-6.470404E-2,-1.2965599E-1,-7.1886985E-4,1.1837224E-2,6.1441567E-2,-2.4920655E-2,-1.0256157E-1,-9.758882E-3,2.2698512E-2,1.3100446E-2,-9.63745E-3,3.8300978E-3,-5.0088808E-2],"split_indices":[1,1,1,3,2,0,1,0,0,2,3,0,0,0,1,0,0,0,0,0,2,0,2,0,0,0,0,0,0,1,1,0,0,0,0,0,0,0,0,0,2,0,0,0,0,0,0,0,2,0,0,0,3,0,0,0,0,0,0,0,0,0,0,0,0,0,0,0,0,0,0],"split_type":[0,0,0,0,0,0,0,0,0,0,0,0,0,0,0,0,0,0,0,0,0,0,0,0,0,0,0,0,0,0,0,0,0,0,0,0,0,0,0,0,0,0,0,0,0,0,0,0,0,0,0,0,0,0,0,0,0,0,0,0,0,0,0,0,0,0,0,0,0,0,0],"sum_hessian":[2.71E2,8E1,1.91E2,4.6E1,3.4E1,9.5E1,9.6E1,2E1,2.6E1,6E0,2.8E1,8E0,8.7E1,5E0,9.1E1,1.1E1,9E0,2.4E1,2E0,2E0,4E0,2E0,2.6E1,6E0,2E0,4E0,8.3E1,1E0,4E0,3E0,8.8E1,1E1,1E0,5E0,4E0,1E0,1E0,2E0,2E0,7E0,1.9E1,5E0,1E0,1E0,1E0,1E0,3E0,3E0,8E1,2E0,1E0,1E0,8.7E1,2E0,8E0,1E0,1E0,2E0,5E0,3E0,1.6E1,3E0,2E0,1E0,2E0,5E1,3E1,1E0,1E0,8.4E1,3E0],"tree_param":{"num_deleted":"0","num_feature":"4","num_nodes":"71","size_leaf_vector":"0"}},{"base_weights":[4.295687E-2,8.624726E-2,1.5241685E-3,9.62701E-3,6.459311E-1,-5.855484E-1,9.960291E-3,2.8775238E-2,-7.339802E-1,1.66152E0,4.6745718E-1,5.8853054E-1,1.5030385E-3,8.385839E-3,1.1867781E0,1.10263154E-1,6.350279E-1,-3.6018223E-1,9.470338E-3,2.3041315E-2,-2.6169553E-1,4.913381E-1,-2.0310883E-1,7.946043E-1,-2.185141E-3,1.7183232E-1,5.7646944E-3,6.439249E-2,-1.2491207E-2,-3.0152053E-1,-3.1285286E-2,7.3910904E-1,-2.1018982E-3,-4.250245E-1,1.2537892E-2,1.3800749E0,3.6943495E-1,-8.7388925E-2,8.411121E-2,3.4139395E-2,2.2360909E-1,4.5983806E-2,-4.813809E-3],"categories":[],"categories_nodes":[],"categories_segments":[],"categories_sizes":[],"default_left":[1,1,1,1,1,0,1,1,0,0,1,0,1,1,0,1,1,0,1,1,1,1,1,1,1,1,1,0,0,0,0,0,0,0,0,0,0,0,0,0,0,0,0],"id":18,"left_children":[1,3,5,7,9,-1,11,13,-1,-1,15,-1,17,19,-1,21,23,-1,25,27,29,31,33,35,37,39,41,-1,-1,-1,-1,-1,-1,-1,-1,-1,-1,-1,-1,-1,-1,-1,-1],"loss_changes":[4.877379E-1,5.697236E0,6.991985E-1,1.7012943E0,2.1234088E0,0E0,6.792583E-1,2.728922E0,0E0,0E0,8.2780886E-1,0E0,4.010794E-1,4.6121955E-1,0E0,8.163043E-1,1.0185776E0,0E0,8.083461E-2,1.6242863E-1,4.5623332E-2,3.6833382E-1,1.9675048E-1,1.481545E0,2.9408718E-2,1.375401E-2,5.7232734E-2,0E0,0E0,0E0,0E0,0E0,0E0,0E0,0E0,0E0,0E0,0E0,0E0,0E0,0E0,0E0,0E0],"parents":[2147483647,0,0,1,1,2,2,3,3,4,4,6,6,7,7,10,10,12,12,13,13,15,15,16,16,18,18,19,19,20,20,21,21,22,22,23,23,24,24,25,25,26,26],"right_children":[2,4,6,8,10,-1,12,14,-1,-1,16,-1,18,20,-1,22,24,-1,26,28,30,32,34,36,38,40,42,-1,-1,-1,-1,-1,-1,-1,-1,-1,-1,-1,-1,-1,-1,-1,-1],"split_conditions":[-6.0306984E-1,-7.5048083E-1,-6.030581E-1,-7.5051236E-1,-4.7510952E-1,-1.7566453E-1,-6.03047E-1,-7.5052416E-1,-2.2019406E-1,4.9845603E-1,-1.0328935E0,1.7655917E-1,-5.2598584E-1,-7.506889E-1,3.5603344E-1,-4.75023E-1,-7.0034906E-2,-1.08054675E-1,-3.7720862E-1,6.2646145E-1,-7.505402E-1,-7.503854E-1,-4.7497475E-1,-7.06666E-1,-7.386053E-1,-4.8311698E-1,-1.0916147E0,1.9317748E-2,-3.7473622E-3,-9.045616E-2,-9.385586E-3,2.2173272E-1,-6.3056947E-4,-1.2750736E-1,3.7613676E-3,4.1402248E-1,1.1083049E-1,-2.6216678E-2,2.5233366E-2,1.0241819E-2,6.708273E-2,1.3795142E-2,-1.4441428E-3],"split_indices":[0,0,0,0,2,0,0,0,0,0,1,0,0,0,0,2,1,0,0,1,0,0,2,0,0,0,1,0,0,0,0,0,0,0,0,0,0,0,0,0,0,0,0],"split_type":[0,0,0,0,0,0,0,0,0,0,0,0,0,0,0,0,0,0,0,0,0,0,0,0,0,0,0,0,0,0,0,0,0,0,0,0,0,0,0,0,0,0,0],"sum_hessian":[2.71E2,1.32E2,1.39E2,1.17E2,1.5E1,1E0,1.38E2,1.15E2,2E0,1E0,1.4E1,1E0,1.37E2,1.14E2,1E0,5E0,9E0,2E0,1.35E2,1.09E2,5E0,2E0,3E0,7E0,2E0,2E0,1.33E2,5E1,5.9E1,4E0,1E0,1E0,1E0,1E0,2E0,2E0,5E0,1E0,1E0,1E0,1E0,2.7E1,1.06E2],"tree_param":{"num_deleted":"0","num_feature":"4","num_nodes":"43","size_leaf_vector":"0"}},{"base_weights":[3.4311585E-2,6.917947E-2,9.420184E-4,7.1759596E-3,5.221316E-1,-4.9771595E-1,8.110176E-3,2.2485483E-2,-5.8718425E-1,1.4122925E0,3.686347E-1,5.002508E-1,9.189336E-4,5.1373322E-3,1.0087614E0,-1.7717457E-1,-7.0360184E-1,9.340997E-2,4.9690607E-1,-3.6347723E-1,6.231878E-3,1.7571429E-2,-1.892132E-1,4.1763687E-1,-1.731127E-1,7.9763603E-1,1.6348012E-1,8.605201E-3,-1.5827002E-1,1.1607635E-2,3.3083057E-1,-2.1188466E-1,-2.6592255E-2,6.282425E-1,-1.7871857E-3,-3.612709E-1,1.0030339E-2,1.2182764E0,1.1111704E-1,4.227315E-1,-2.3668174E-1,1.2103731E-2,-8.547702E-2],"categories":[],"categories_nodes":[],"categories_segments":[],"categories_sizes":[],"default_left":[1,1,1,1,1,0,1,1,1,0,1,0,1,1,0,0,0,1,1,0,1,1,1,1,1,1,1,1,0,0,0,0,0,0,0,0,0,0,0,0,0,0,0],"id":19,"left_children":[1,3,5,7,9,-1,11,13,15,-1,17,-1,19,21,-1,-1,-1,23,25,-1,27,29,31,33,35,37,39,41,-1,-1,-1,-1,-1,-1,-1,-1,-1,-1,-1,-1,-1,-1,-1],"loss_changes":[3.164139E-1,3.7315078E0,5.044608E-1,1.0869291E0,1.6655707E0,0E0,4.9147555E-1,1.9795849E0,1.8536687E-2,0E0,4.8313594E-1,0E0,2.6943544E-1,2.8123066E-1,0E0,0E0,0E0,5.9078115E-1,8.7231374E-1,0E0,5.484895E-2,1.9979504E-1,2.017349E-2,2.6612198E-1,1.4146313E-1,1.3085165E0,7.225079E-1,4.5798916E-2,0E0,0E0,0E0,0E0,0E0,0E0,0E0,0E0,0E0,0E0,0E0,0E0,0E0,0E0,0E0],"parents":[2147483647,0,0,1,1,2,2,3,3,4,4,6,6,7,7,8,8,10,10,12,12,13,13,17,17,18,18,20,20,21,21,22,22,23,23,24,24,25,25,26,26,27,27],"right_children":[2,4,6,8,10,-1,12,14,16,-1,18,-1,20,22,-1,-1,-1,24,26,-1,28,30,32,34,36,38,40,42,-1,-1,-1,-1,-1,-1,-1,-1,-1,-1,-1,-1,-1,-1,-1],"split_conditions":[-6.0306984E-1,-7.5048083E-1,-6.030581E-1,-7.5051236E-1,-4.7510952E-1,-1.4931479E-1,-6.03047E-1,-7.5052416E-1,-7.505002E-1,4.2368776E-1,-1.0328935E0,1.5007526E-1,-5.6451714E-1,-7.507011E-1,3.0262843E-1,-5.315237E-2,-2.1108057E-1,-4.75023E-1,-6.678966E-1,-1.0904317E-1,1.3324318E0,-8.5088265E-1,-7.505402E-1,-7.503854E-1,-4.7497475E-1,-6.0309184E-1,-7.06666E-1,7.443278E-1,-4.7481008E-2,3.4822905E-3,9.924918E-2,-6.35654E-2,-7.977677E-3,1.8847276E-1,-5.361557E-4,-1.0838128E-1,3.0091016E-3,3.6548293E-1,3.3335116E-2,1.2681945E-1,-7.1004525E-2,3.6311194E-3,-2.5643107E-2],"split_indices":[0,0,0,0,2,0,0,0,0,0,1,0,0,0,0,0,0,2,1,0,2,0,0,0,2,0,0,3,0,0,0,0,0,0,0,0,0,0,0,0,0,0,0],"split_type":[0,0,0,0,0,0,0,0,0,0,0,0,0,0,0,0,0,0,0,0,0,0,0,0,0,0,0,0,0,0,0,0,0,0,0,0,0,0,0,0,0,0,0],"sum_hessian":[2.71E2,1.32E2,1.39E2,1.17E2,1.5E1,1E0,1.38E2,1.15E2,2E0,1E0,1.4E1,1E0,1.37E2,1.14E2,1E0,1E0,1E0,5E0,9E0,1E0,1.36E2,1.08E2,6E0,2E0,3E0,4E0,5E0,1.35E2,1E0,1.07E2,1E0,5E0,1E0,1E0,1E0,1E0,2E0,2E0,2E0,3E0,2E0,1.31E2,4E0],"tree_param":{"num_deleted":"0","num_feature":"4","num_nodes":"43","size_leaf_vector":"0"}},{"base_weights":[2.715301E-2,6.989667E-2,8.012162E-3,-1.5174293E-2,2.0182979E-1,-3.7702817E-1,1.2065717E-2,-2.125951E-1,-7.134765E-3,7.361672E-1,8.012072E-2,2.3233853E-2,-4.524497E-2,-2.0644583E-2,8.0733314E-2,-1.7607912E-2,8.904438E-1,8.3683395E-1,2.1100452E-2,1.14758145E-2,7.985709E-2,-1.9939858E-1,-2.7737875E-2,-3.416848E-2,-4.9528484E-3,1.6986138E-1,-2.8578073E-2,1.1290811E0,3.549919E-1,1.3852997E-1,-6.8290465E-2,-3.6444332E-2,5.070503E-2,3.737513E-1,4.13955E-2,3.188994E-1,-5.150704E-2,3.730011E-2,-8.74109E-3,-2.4329554E-1,1.2409293E-1,5.340061E-1,-1.5182495E-3,-4.7759674E-3,8.574476E-1,-4.9910673E-1,2.8905198E-2,-1.0715588E-3,-2.662334E-1,2.4185103E-1,9.137768E-3,-7.298675E-2,8.993231E-2,-2.6100188E-2,-2.5453076E-1],"categories":[],"categories_nodes":[],"categories_segments":[],"categories_sizes":[],"default_left":[1,1,1,1,1,0,1,0,1,1,1,1,1,1,1,0,1,0,1,1,1,0,1,0,1,0,1,0,1,1,1,1,1,0,1,0,1,0,0,0,0,0,0,0,0,0,0,0,0,0,0,0,0,0,0],"id":20,"left_children":[1,3,5,7,9,-1,11,-1,13,15,17,19,21,23,25,-1,27,-1,29,31,33,-1,35,-1,37,-1,39,-1,41,43,45,47,49,-1,51,-1,53,-1,-1,-1,-1,-1,-1,-1,-1,-1,-1,-1,-1,-1,-1,-1,-1,-1,-1],"loss_changes":[2.2197674E-1,9.4585156E-1,2.99537E-1,8.101603E-2,2.08713E0,0E0,1.2138129E-1,0E0,6.2207878E-2,7.1341825E-1,1.232862E0,1.0427653E-1,7.8131355E-2,9.380374E-3,7.30533E-2,0E0,2.3807955E-1,0E0,2.9288283E-1,2.4999075E-1,2.8972667E-1,0E0,2.5536466E-1,0E0,3.8474605E-3,0E0,1.6131577E-1,0E0,1.9227192E-1,1.2403972E0,6.8440235E-1,4.8741132E-1,5.778054E-1,0E0,1.4535761E-1,0E0,1.3778612E-1,0E0,0E0,0E0,0E0,0E0,0E0,0E0,0E0,0E0,0E0,0E0,0E0,0E0,0E0,0E0,0E0,0E0,0E0],"parents":[2147483647,0,0,1,1,2,2,3,3,4,4,6,6,8,8,9,9,10,10,11,11,12,12,13,13,14,14,16,16,18,18,19,19,20,20,22,22,24,24,26,26,28,28,29,29,30,30,31,31,32,32,34,34,36,36],"right_children":[2,4,6,8,10,-1,12,-1,14,16,18,20,22,24,26,-1,28,-1,30,32,34,-1,36,-1,38,-1,40,-1,42,44,46,48,50,-1,52,-1,54,-1,-1,-1,-1,-1,-1,-1,-1,-1,-1,-1,-1,-1,-1,-1,-1,-1,-1],"split_conditions":[-3.3076897E-1,-5.8381677E-1,-3.1414238E-1,-1.1047189E0,-4.75023E-1,-1.13108456E-1,2.604288E-1,-6.3778535E-2,3.660205E-1,-1.0063365E0,5.012086E-2,6.126747E-1,-1.4437107E0,-5.842286E-1,1.3635051E-1,-5.282374E-3,-4.7510952E-1,2.510502E-1,-7.5051236E-1,-3.593137E-2,-3.4697926E-1,-5.9819575E-2,-1.3964837E0,-1.0250545E-2,4.0997452E-1,5.0958414E-2,1.664629E-1,3.3872434E-1,-7.503854E-1,-7.5052416E-1,-7.5048083E-1,-3.1102425E-1,4.2476422E-1,1.121254E-1,-2.2648114E-1,9.566982E-2,9.9716216E-1,1.11900335E-2,-2.622327E-3,-7.298867E-2,3.722788E-2,1.6020185E-1,-4.5547486E-4,-1.4327903E-3,2.572343E-1,-1.4973202E-1,8.671559E-3,-3.2146764E-4,-7.987003E-2,7.255531E-2,2.7413305E-3,-2.1896027E-2,2.6979694E-2,-7.830057E-3,-7.635923E-2],"split_indices":[2,2,2,0,2,0,3,0,3,0,3,2,0,0,0,0,2,0,0,1,3,0,0,0,0,0,0,0,0,0,0,1,1,0,3,0,1,0,0,0,0,0,0,0,0,0,0,0,0,0,0,0,0,0,0],"split_type":[0,0,0,0,0,0,0,0,0,0,0,0,0,0,0,0,0,0,0,0,0,0,0,0,0,0,0,0,0,0,0,0,0,0,0,0,0,0,0,0,0,0,0,0,0,0,0,0,0,0,0,0,0,0,0],"sum_hessian":[2.71E2,8.3E1,1.88E2,5.1E1,3.2E1,1E0,1.87E2,1E0,5E1,5E0,2.7E1,1.57E2,3E1,4.4E1,6E0,1E0,4E0,1E0,2.6E1,1.31E2,2.6E1,2E0,2.8E1,2.3E1,2.1E1,3E0,3E0,2E0,2E0,1.1E1,1.5E1,5.9E1,7.2E1,2E0,2.4E1,1E0,2.7E1,1E0,2E1,1E0,2E0,1E0,1E0,1E1,1E0,2E0,1.3E1,5.2E1,7E0,1.2E1,6E1,7E0,1.7E1,2.5E1,2E0],"tree_param":{"num_deleted":"0","num_feature":"4","num_nodes":"55","size_leaf_vector":"0"}},{"base_weights":[2.1799669E-2,4.909506E-2,-4.286663E-3,3.943309E-3,3.7902078E-1,-4.273939E-1,1.8320502E-3,1.2920521E-2,-5.2319527E-1,1.031086E0,2.6681072E-1,4.2087746E-1,-4.254347E-3,1.7869982E-3,4.3539873E-1,3.2818893E-1,-8.809849E-2,-2.5681266E-1,1.3480737E-3,-7.4900114E-3,1.7156768E-1,7.2883034E-1,-7.573223E-2,4.9686357E-2,4.9604222E-1,-1.267423E-1,-5.405426E-3,-3.1329155E-1,-7.1927436E-2,1.4180923E-1,-1.8066391E-3,8.8010554E-4,-1.834385E-1,2.0766723E-1,6.624571E-2,3.0174255E-1,-1.5177739E-1,9.2807454E-1,1.9735238E-1,2.5832295E-2,1.8688154E-1,4.0563213E-4,-1.4801936E-1],"categories":[],"categories_nodes":[],"categories_segments":[],"categories_sizes":[],"default_left":[1,1,1,1,1,0,1,1,0,0,1,0,1,1,1,1,1,1,1,1,1,0,0,1,1,0,0,0,0,1,1,0,0,0,0,0,0,0,0,0,0,0,0],"id":21,"left_children":[1,3,5,7,9,-1,11,13,-1,-1,15,-1,17,19,21,23,25,27,29,31,33,-1,-1,35,37,-1,-1,-1,-1,39,41,-1,-1,-1,-1,-1,-1,-1,-1,-1,-1,-1,-1],"loss_changes":[1.9388442E-1,1.9797696E0,3.632251E-1,5.651637E-1,8.955877E-1,0E0,3.5630685E-1,5.495514E-1,0E0,0E0,3.5566843E-1,0E0,1.9560763E-1,1.824166E-1,5.05142E-1,5.8307195E-1,8.901631E-3,8.792087E-3,6.0519785E-2,1.6215947E-1,9.055391E-3,0E0,0E0,3.504788E-1,8.4919167E-1,0E0,0E0,0E0,0E0,1.0854468E-2,4.3403976E-2,0E0,0E0,0E0,0E0,0E0,0E0,0E0,0E0,0E0,0E0,0E0,0E0],"parents":[2147483647,0,0,1,1,2,2,3,3,4,4,6,6,7,7,10,10,12,12,13,13,14,14,15,15,16,16,17,17,18,18,19,19,20,20,23,23,24,24,29,29,30,30],"right_children":[2,4,6,8,10,-1,12,14,-1,-1,16,-1,18,20,22,24,26,28,30,32,34,-1,-1,36,38,-1,-1,-1,-1,40,42,-1,-1,-1,-1,-1,-1,-1,-1,-1,-1,-1,-1],"split_conditions":[-6.0306984E-1,-7.5048083E-1,-6.030581E-1,-7.505002E-1,-4.7510952E-1,-1.2821817E-1,-6.03047E-1,-7.5052416E-1,-1.5695858E-1,3.093258E-1,-7.0034906E-2,1.2626325E-1,-5.2598584E-1,1.6874855E0,-7.5051236E-1,-1.0328935E0,-7.386053E-1,-5.6451714E-1,-3.7720862E-1,-7.5067836E-1,-1.6404749E0,2.186491E-1,-2.271967E-2,-4.75023E-1,-7.06666E-1,-3.8022693E-2,-1.6216278E-3,-9.398747E-2,-2.1578232E-2,-4.8311698E-1,1.3324318E0,2.6403167E-4,-5.503155E-2,6.230017E-2,1.9873714E-2,9.0522766E-2,-4.5533217E-2,2.784224E-1,5.9205715E-2,7.749689E-3,5.6064464E-2,1.2168964E-4,-4.440581E-2],"split_indices":[0,0,0,0,2,0,0,0,0,0,1,0,0,1,0,1,0,0,0,0,0,0,0,2,0,0,0,0,0,0,2,0,0,0,0,0,0,0,0,0,0,0,0],"split_type":[0,0,0,0,0,0,0,0,0,0,0,0,0,0,0,0,0,0,0,0,0,0,0,0,0,0,0,0,0,0,0,0,0,0,0,0,0,0,0,0,0,0,0],"sum_hessian":[2.71E2,1.32E2,1.39E2,1.17E2,1.5E1,1E0,1.38E2,1.16E2,1E0,1E0,1.4E1,1E0,1.37E2,1.14E2,2E0,1.2E1,2E0,2E0,1.35E2,1.09E2,5E0,1E0,1E0,5E0,7E0,1E0,1E0,1E0,1E0,2E0,1.33E2,1.05E2,4E0,3E0,2E0,2E0,3E0,2E0,5E0,1E0,1E0,1.32E2,1E0],"tree_param":{"num_deleted":"0","num_feature":"4","num_nodes":"43","size_leaf_vector":"0"}},{"base_weights":[1.75417E-2,5.1524423E-2,2.3454532E-3,-1.1773653E-2,1.497055E-1,-3.2060596E-1,5.7686307E-3,-1.8083799E-1,-4.9128234E-3,5.156979E-1,6.593193E-2,1.7119434E-2,-2.9642964E-2,-1.1186403E-2,9.919325E-2,-1.5098742E-2,6.24877E-1,6.817074E-1,1.7877014E-2,5.2282847E-3,1.4649545E-1,-1.596949E-1,-2.0102082E-2,-2.800201E-3,-2.0686205E-1,2.4949443E-1,-1.0070456E-1,8.000676E-1,2.4139404E-1,1.1827864E-1,-5.8541518E-2,-2.6244648E-2,5.4152887E-2,4.4879157E-2,6.321373E-1,2.7093256E-1,-3.3171088E-2,-1.4680337E-2,1.3155138E-1,4.0864372E-1,-4.6552658E-2,1.6393807E-2,6.195059E-1,-3.3939233E-1,5.8223414E-3,-1.1246762E-2,-3.1214225E-1,2.526819E-1,8.678356E-4,2.9891968E-1,-4.4787586E-2,-2.5234398E-1,-2.1944495E-2],"categories":[],"categories_nodes":[],"categories_segments":[],"categories_sizes":[],"default_left":[1,1,1,1,1,0,1,0,1,1,1,1,1,1,1,0,1,0,1,1,1,0,1,1,0,0,0,0,1,1,1,1,1,1,0,0,1,0,0,0,0,0,0,0,0,0,0,0,0,0,0,0,0],"id":22,"left_children":[1,3,5,7,9,-1,11,-1,13,15,17,19,21,23,25,-1,27,-1,29,31,33,-1,35,37,-1,-1,-1,-1,39,41,43,45,47,49,-1,-1,51,-1,-1,-1,-1,-1,-1,-1,-1,-1,-1,-1,-1,-1,-1,-1,-1],"loss_changes":[1.4034262E-1,5.237951E-1,2.1079274E-1,5.94275E-2,9.777951E-1,0E0,7.607407E-2,0E0,3.4418616E-2,3.5714614E-1,8.163622E-1,2.1922949E-1,5.3867057E-2,7.9828545E-2,1.15259856E-1,0E0,1.427815E-1,0E0,2.1408291E-1,2.0467491E-1,5.6381965E-1,0E0,1.7634258E-1,7.854475E-2,0E0,0E0,0E0,0E0,1.6350044E-1,6.026534E-1,2.9120237E-1,3.4380603E-1,5.498694E-1,2.6395676E-1,0E0,0E0,1.0026672E-1,0E0,0E0,0E0,0E0,0E0,0E0,0E0,0E0,0E0,0E0,0E0,0E0,0E0,0E0,0E0,0E0],"parents":[2147483647,0,0,1,1,2,2,3,3,4,4,6,6,8,8,9,9,10,10,11,11,12,12,13,13,14,14,16,16,18,18,19,19,20,20,22,22,23,23,28,28,29,29,30,30,31,31,32,32,33,33,36,36],"right_children":[2,4,6,8,10,-1,12,-1,14,16,18,20,22,24,26,-1,28,-1,30,32,34,-1,36,38,-1,-1,-1,-1,40,42,44,46,48,50,-1,-1,52,-1,-1,-1,-1,-1,-1,-1,-1,-1,-1,-1,-1,-1,-1,-1,-1],"split_conditions":[-3.3076897E-1,-5.8381677E-1,-3.1414238E-1,-1.1047189E0,-4.75023E-1,-9.6181795E-2,2.1946588E-1,-5.42514E-2,5.2032214E-1,-1.0063365E0,5.012086E-2,6.126747E-1,-1.4437107E0,5.051044E-1,1.6648288E-1,-4.529623E-3,-4.7510952E-1,2.0451222E-1,-7.5051236E-1,-1.3250369E-1,-2.2646198E-1,-4.790847E-2,-1.3964837E0,3.660205E-1,-6.2058616E-2,7.484833E-2,-3.0211369E-2,2.4002029E-1,-7.503854E-1,-7.5052416E-1,-7.5048083E-1,-1.3251874E-1,-1.21794336E-1,-3.4697926E-1,1.896412E-1,8.127977E-2,-1.346108E0,-4.4041015E-3,3.9465416E-2,1.2259312E-1,-1.3965798E-2,4.918142E-3,1.8585177E-1,-1.01817705E-1,1.7467025E-3,-3.3740287E-3,-9.364268E-2,7.580458E-2,2.603507E-4,8.96759E-2,-1.3436276E-2,-7.5703196E-2,-6.583349E-3],"split_indices":[2,2,2,0,2,0,3,0,3,0,3,2,0,3,0,0,2,0,0,3,3,0,0,3,0,0,0,0,0,0,0,3,3,3,0,0,0,0,0,0,0,0,0,0,0,0,0,0,0,0,0,0,0],"split_type":[0,0,0,0,0,0,0,0,0,0,0,0,0,0,0,0,0,0,0,0,0,0,0,0,0,0,0,0,0,0,0,0,0,0,0,0,0,0,0,0,0,0,0,0,0,0,0,0,0,0,0,0,0],"sum_hessian":[2.71E2,8.3E1,1.88E2,5.1E1,3.2E1,1E0,1.87E2,1E0,5E1,5E0,2.7E1,1.42E2,4.5E1,4.8E1,2E0,1E0,4E0,1E0,2.6E1,1.31E2,1.1E1,2E0,4.3E1,4.7E1,1E0,1E0,1E0,2E0,2E0,1.1E1,1.5E1,8E1,5.1E1,1E1,1E0,1E0,4.2E1,4.4E1,3E0,1E0,1E0,1E1,1E0,2E0,1.3E1,7.7E1,3E0,1E1,4.1E1,2E0,8E0,1E0,4.1E1],"tree_param":{"num_deleted":"0","num_feature":"4","num_nodes":"53","size_leaf_vector":"0"}},{"base_weights":[1.4862068E-2,3.543639E-2,-7.5533227E-3,2.115986E-2,1.0242138E0,1.2470349E-1,-2.071606E-2,-9.169716E-2,3.2369018E-2,3.8346123E-2,5.373173E-1,-1.2345468E-1,-5.9821415E-3,-1.377207E-1,2.3029268E-1,8.957778E-2,-1.5137828E-3,2.3913543E-1,-3.2844324E-2,-3.6271863E-2,-2.1791048E-1,1.3357608E-1,-1.42135E-2,-1.0208026E-2,-3.1419685E-1,2.0983225E-2,4.2992765E-1,-3.6415863E-1,7.4590994E-3,8.393653E-3,-8.649021E-2,1.3736089E-2,-5.252215E-2,-2.6539412E-1,-6.61343E-2,1.8589719E-1,6.094122E-2,1.2968405E-1,-2.3059038E-2,6.0218155E-2,-1.476577E-1,3.561753E-2,-4.1055483E-1,-1.6334983E-2,2.4139526E-1,5.519979E-1,4.2477924E-2,3.5687256E-1,-1.3694756E-3,9.223231E-3,2.122879E-3,-1.4087811E-1,3.8336754E-2,2.0823717E-2,-2.1958351E-4,2.4323623E-1,1.2098908E-2,-2.4191022E-1,-1.3398138E-2],"categories":[],"categories_nodes":[],"categories_segments":[],"categories_sizes":[],"default_left":[1,1,1,1,0,1,1,1,1,1,0,1,1,1,0,1,1,0,1,1,1,1,1,1,1,1,1,0,1,1,1,1,0,0,0,0,0,1,1,0,0,0,0,0,0,0,0,0,0,0,0,0,0,0,0,0,0,0,0],"id":23,"left_children":[1,3,5,7,-1,9,11,13,15,17,-1,19,21,23,-1,25,27,-1,29,31,33,35,37,39,41,43,45,-1,47,49,51,53,-1,-1,-1,-1,-1,55,57,-1,-1,-1,-1,-1,-1,-1,-1,-1,-1,-1,-1,-1,-1,-1,-1,-1,-1,-1,-1],"loss_changes":[1.2570904E-1,1.9828442E0,2.3063625E-1,1.8133768E-1,0E0,4.0698284E-1,1.8091056E-1,2.2436453E-1,2.501883E-1,1.6509132E-1,0E0,1.1561982E-1,1.23666465E-1,2.66828E-1,0E0,1.1115938E0,2.695418E-1,0E0,2.0636197E-2,8.03524E-3,3.289655E-2,1.1473231E-2,1.3154839E-1,8.633213E-2,1.8315995E-1,3.4118384E-1,3.549211E-1,0E0,2.503594E-1,1.1632772E-5,3.2557122E-2,3.0131039E-4,0E0,0E0,0E0,0E0,0E0,7.716941E-2,1.997316E-1,0E0,0E0,0E0,0E0,0E0,0E0,0E0,0E0,0E0,0E0,0E0,0E0,0E0,0E0,0E0,0E0,0E0,0E0,0E0,0E0],"parents":[2147483647,0,0,1,1,2,2,3,3,5,5,6,6,7,7,8,8,9,9,11,11,12,12,13,13,15,15,16,16,18,18,19,19,20,20,21,21,22,22,23,23,24,24,25,25,26,26,28,28,29,29,30,30,31,31,37,37,38,38],"right_children":[2,4,6,8,-1,10,12,14,16,18,-1,20,22,24,-1,26,28,-1,30,32,34,36,38,40,42,44,46,-1,48,50,52,54,-1,-1,-1,-1,-1,56,58,-1,-1,-1,-1,-1,-1,-1,-1,-1,-1,-1,-1,-1,-1,-1,-1,-1,-1,-1,-1],"split_conditions":[1.6392002E-1,1.2896703E-1,-2.2032006E-1,-1.0890574E0,3.0726415E-1,-2.2646198E-1,2.4485308E-1,1.0279993E0,-6.0306984E-1,-3.4697926E-1,1.6119519E-1,-1.6412439E0,-1.6404678E0,6.2646145E-1,6.90878E-2,-7.504126E-1,-6.030581E-1,7.1740635E-2,6.823511E-1,-1.7915801E0,2.4482712E-1,-1.6404793E0,2.4493277E-1,-1.2080683E0,-1.4639299E0,-1.03198E0,-6.0309184E-1,-1.09247595E-1,-6.03047E-1,-1.0341022E0,1.0101393E0,-1.7915859E0,-1.5756646E-2,-7.961824E-2,-1.9840289E-2,5.5769157E-2,1.8282367E-2,-1.1018839E0,2.449802E-1,1.8065447E-2,-4.4297315E-2,1.06852595E-2,-1.2316645E-1,-4.900495E-3,7.2418585E-2,1.6559938E-1,1.2743378E-2,1.0706177E-1,-4.108427E-4,2.7669694E-3,6.3686376E-4,-4.2263433E-2,1.1501026E-2,6.2471153E-3,-6.587506E-5,7.2970875E-2,3.6296726E-3,-7.2573066E-2,-4.0194415E-3],"split_indices":[2,2,3,0,0,3,2,1,0,3,0,0,0,1,0,0,0,0,2,0,2,0,2,0,0,1,0,0,0,0,2,0,0,0,0,0,0,0,2,0,0,0,0,0,0,0,0,0,0,0,0,0,0,0,0,0,0,0,0],"split_type":[0,0,0,0,0,0,0,0,0,0,0,0,0,0,0,0,0,0,0,0,0,0,0,0,0,0,0,0,0,0,0,0,0,0,0,0,0,0,0,0,0,0,0,0,0,0,0,0,0,0,0,0,0,0,0,0,0,0,0],"sum_hessian":[2.71E2,1.41E2,1.3E2,1.4E2,1E0,1.1E1,1.19E2,1.2E1,1.28E2,1E1,1E0,1.4E1,1.05E2,1.1E1,1E0,4.7E1,8.1E1,2E0,8E0,8E0,6E0,5E0,1E2,7E0,4E0,4E1,7E0,1E0,8E1,5E0,3E0,2E0,6E0,4E0,2E0,2E0,3E0,5E0,9.5E1,5E0,2E0,1E0,3E0,3.5E1,5E0,5E0,2E0,1E0,7.9E1,4E0,1E0,2E0,1E0,1E0,1E0,2E0,3E0,3E0,9.2E1],"tree_param":{"num_deleted":"0","num_feature":"4","num_nodes":"59","size_leaf_vector":"0"}},{"base_weights":[1.2798659E-2,2.8192118E-2,-3.985081E-3,1.6043387E-2,8.705816E-1,1.0442384E-1,-1.4792764E-2,-6.954381E-2,2.4544086E-2,3.0876853E-2,4.5672035E-1,-9.185578E-2,-2.9089453E-3,-1.0796393E-1,1.957488E-1,6.7826554E-2,-1.0913133E-3,1.9130802E-1,-2.6030965E-2,-4.9733087E-2,-2.0579056E-1,1.371316E-1,-9.812844E-3,-1.0424629E-2,-2.4243402E-1,2.2188216E-2,3.835969E-1,-3.0953503E-1,6.538054E-3,6.4428304E-3,-6.823392E-2,-1.1599677E-2,-8.0761775E-2,1.9458897E-1,3.396368E-2,-2.2643344E-1,-3.149464E-3,-5.7843156E-2,1.6075253E-1,3.0274928E-2,-3.1818E-1,-3.4785902E-3,1.8104663E-1,5.499084E-1,3.3982594E-2,3.0334187E-1,-9.637671E-4,7.0096557E-3,1.8043518E-3,-1.1270262E-1,3.2586098E-2,-2.7096558E-2,1.8095016E-2,4.6556342E-2,-1.9676073E-2],"categories":[],"categories_nodes":[],"categories_segments":[],"categories_sizes":[],"default_left":[1,1,1,1,0,1,1,1,1,1,0,1,1,1,0,1,1,0,1,1,0,1,1,1,1,1,1,0,1,1,1,1,0,0,0,0,1,0,0,0,0,0,0,0,0,0,0,0,0,0,0,0,0,0,0],"id":24,"left_children":[1,3,5,7,-1,9,11,13,15,17,-1,19,21,23,-1,25,27,-1,29,31,-1,33,35,37,39,41,43,-1,45,47,49,51,-1,-1,-1,-1,53,-1,-1,-1,-1,-1,-1,-1,-1,-1,-1,-1,-1,-1,-1,-1,-1,-1,-1],"loss_changes":[7.0386216E-2,1.439256E0,1.5503077E-1,1.0429158E-1,0E0,2.9682207E-1,1.0962915E-1,1.5363726E-1,1.432077E-1,1.05407596E-1,0E0,6.655322E-2,1.0286235E-1,1.5486613E-1,0E0,6.832279E-1,1.9498864E-1,0E0,1.2774031E-2,1.44451745E-2,0E0,2.3029834E-2,1.450728E-1,7.423418E-2,1.129159E-1,1.7595749E-1,3.3018196E-1,0E0,1.8064445E-1,3.127352E-6,2.1605879E-2,3.7115384E-3,0E0,0E0,0E0,0E0,8.224141E-2,0E0,0E0,0E0,0E0,0E0,0E0,0E0,0E0,0E0,0E0,0E0,0E0,0E0,0E0,0E0,0E0,0E0,0E0],"parents":[2147483647,0,0,1,1,2,2,3,3,5,5,6,6,7,7,8,8,9,9,11,11,12,12,13,13,15,15,16,16,18,18,19,19,21,21,22,22,23,23,24,24,25,25,26,26,28,28,29,29,30,30,31,31,36,36],"right_children":[2,4,6,8,-1,10,12,14,16,18,-1,20,22,24,-1,26,28,-1,30,32,-1,34,36,38,40,42,44,-1,46,48,50,52,-1,-1,-1,-1,54,-1,-1,-1,-1,-1,-1,-1,-1,-1,-1,-1,-1,-1,-1,-1,-1,-1,-1],"split_conditions":[1.6392002E-1,1.2896703E-1,-2.2032006E-1,-1.0890574E0,2.611745E-1,-2.2646198E-1,2.4487019E-1,1.0279993E0,-6.0306984E-1,-3.4697926E-1,1.3701612E-1,-1.1018364E0,2.4493277E-1,6.2646145E-1,5.8724646E-2,-7.503582E-1,-6.030581E-1,5.7392407E-2,6.823511E-1,-1.7915586E0,-6.1737172E-2,-1.1018839E0,2.449624E-1,5.660447E-1,-1.4639299E0,-1.03198E0,-6.0309184E-1,-9.286051E-2,-6.03047E-1,-1.0341022E0,1.0101393E0,-1.7915665E0,-2.4228534E-2,5.8376696E-2,1.0189105E-2,-6.7930035E-2,3.186128E-1,-1.7352948E-2,4.8225764E-2,9.0824785E-3,-9.5454E-2,-1.0435771E-3,5.431399E-2,1.6497253E-1,1.0194778E-2,9.100256E-2,-2.8913014E-4,2.1028968E-3,5.413056E-4,-3.3810787E-2,9.7758295E-3,-8.128968E-3,5.428505E-3,1.3966903E-2,-5.902822E-3],"split_indices":[2,2,3,0,0,3,2,1,0,3,0,0,2,1,0,0,0,0,2,0,0,0,2,1,0,1,0,0,0,0,2,0,0,0,0,0,2,0,0,0,0,0,0,0,0,0,0,0,0,0,0,0,0,0,0],"split_type":[0,0,0,0,0,0,0,0,0,0,0,0,0,0,0,0,0,0,0,0,0,0,0,0,0,0,0,0,0,0,0,0,0,0,0,0,0,0,0,0,0,0,0,0,0,0,0,0,0,0,0,0,0,0,0],"sum_hessian":[2.71E2,1.41E2,1.3E2,1.4E2,1E0,1.1E1,1.19E2,1.2E1,1.28E2,1E1,1E0,1.5E1,1.04E2,1.1E1,1E0,4.7E1,8.1E1,2E0,8E0,1.2E1,3E0,4E0,1E2,7E0,4E0,4.2E1,5E0,1E0,8E1,5E0,3E0,6E0,6E0,2E0,2E0,2E0,9.8E1,6E0,1E0,1E0,3E0,3.7E1,5E0,3E0,2E0,1E0,7.9E1,4E0,1E0,2E0,1E0,4E0,2E0,2.4E1,7.4E1],"tree_param":{"num_deleted":"0","num_feature":"4","num_nodes":"55","size_leaf_vector":"0"}},{"base_weights":[1.1105148E-2,3.611585E-2,3.5490552E-3,1.9616058E-2,5.295515E-1,-1.9790904E-1,6.437638E-3,3.3647496E-2,-2.6755142E-1,-3.0300522E-1,6.1416626E-3,2.2727098E-2,-9.1507975E-3,1.2951341E-3,2.784161E-1,-1.0491371E-2,-3.9083576E-1,8.298771E-3,7.3999405E-1,-1.3885356E-1,-4.074241E-3,1.9469833E-1,-6.0275365E-3,1.2777694E-1,5.911255E-1,-1.3270552E-1,1.2487803E-2,-4.016006E-2,-1.5836471E-1,-8.254319E-3,1.3940652E-1,-2.632845E-2,1.1681098E-2,4.8364925E-1,-4.0127374E-2,2.573371E-2,-2.24792E-1,5.749909E-2,-1.1193056E-3,6.007099E-2,-1.633393E-2],"categories":[],"categories_nodes":[],"categories_segments":[],"categories_sizes":[],"default_left":[1,1,1,1,0,1,1,1,1,0,0,1,1,1,1,0,0,1,0,1,1,0,1,1,0,1,1,0,0,1,0,0,0,0,0,0,0,0,0,0,0],"id":25,"left_children":[1,3,5,7,-1,9,11,13,15,-1,-1,17,19,21,23,-1,-1,25,-1,27,29,-1,31,33,-1,35,37,-1,-1,39,-1,-1,-1,-1,-1,-1,-1,-1,-1,-1,-1],"loss_changes":[5.1275253E-2,5.025322E-1,1.2347902E-1,2.5882357E-1,0E0,6.619581E-2,5.302483E-2,4.7476998E-1,9.097405E-2,0E0,0E0,1.0494531E0,6.988773E-2,7.7649854E-2,2.5421172E-1,0E0,0E0,6.1315015E-2,0E0,1.3425574E-3,6.352584E-2,0E0,1.936112E-2,3.7792253E-1,0E0,4.955506E-2,6.0699232E-2,0E0,0E0,5.728946E-2,0E0,0E0,0E0,0E0,0E0,0E0,0E0,0E0,0E0,0E0,0E0],"parents":[2147483647,0,0,1,1,2,2,3,3,5,5,6,6,7,7,8,8,11,11,12,12,13,13,14,14,17,17,19,19,20,20,22,22,23,23,25,25,26,26,29,29],"right_children":[2,4,6,8,-1,10,12,14,16,-1,-1,18,20,22,24,-1,-1,26,-1,28,30,-1,32,34,-1,36,38,-1,-1,40,-1,-1,-1,-1,-1,-1,-1,-1,-1,-1,-1],"split_conditions":[-1.0326488E0,-1.0326934E0,-1.0325112E0,-1.0328125E0,1.5886545E-1,-7.505402E-1,1.6392002E-1,-1.0415137E0,-7.505002E-1,-9.090157E-2,1.8424989E-3,1.2896703E-1,2.4256483E-1,-3.2637098E-1,-7.503582E-1,-3.1474114E-3,-1.1725073E-1,-1.4479206E0,2.2199823E-1,-1.6412439E0,1.6875292E0,5.84095E-2,-5.086264E-1,-7.5045943E-1,1.7733765E-1,-1.4639299E0,-6.0306984E-1,-1.2048018E-2,-4.7509417E-2,-2.1034017E-1,4.1821957E-2,-7.898536E-3,3.5043294E-3,1.4509478E-1,-1.2038213E-2,7.7201133E-3,-6.7437604E-2,1.7249728E-2,-3.357917E-4,1.8021299E-2,-4.9001793E-3],"split_indices":[1,1,1,1,0,0,2,1,0,0,0,2,2,3,0,0,0,0,0,0,1,0,0,0,0,0,0,0,0,3,0,0,0,0,0,0,0,0,0,0,0],"split_type":[0,0,0,0,0,0,0,0,0,0,0,0,0,0,0,0,0,0,0,0,0,0,0,0,0,0,0,0,0,0,0,0,0,0,0,0,0,0,0,0,0],"sum_hessian":[2.71E2,6.2E1,2.09E2,6.1E1,1E0,2E0,2.07E2,5.9E1,2E0,1E0,1E0,1.01E2,1.06E2,5.3E1,6E0,1E0,1E0,1E2,1E0,3E0,1.03E2,1E0,5.2E1,5E0,1E0,2E0,9.8E1,1E0,2E0,1.01E2,2E0,2.4E1,2.8E1,1E0,4E0,1E0,1E0,2.2E1,7.6E1,1E1,9.1E1],"tree_param":{"num_deleted":"0","num_feature":"4","num_nodes":"41","size_leaf_vector":"0"}},{"base_weights":[9.569145E-3,3.1676024E-2,2.891514E-3,1.766696E-2,4.5011902E-1,-1.6822274E-1,5.3456067E-3,2.9626803E-2,-2.274189E-1,-2.5755453E-1,5.220413E-3,1.766573E-2,-6.448769E-3,1.9069122E-3,2.3923357E-1,-8.9178085E-3,-3.3221054E-1,5.385293E-3,6.2899494E-1,-1.3177372E-2,6.8282396E-2,1.6549397E-1,-4.3021636E-3,1.1162027E-1,5.0245667E-1,-5.7107877E-2,1.4453E-2,-5.9473936E-2,-4.2021056E-3,1.11525215E-1,3.9995126E-2,-1.7917505E-2,9.472517E-3,4.111023E-1,-3.0496597E-2,-8.816046E-2,1.5776157E-1,1.1817515E-1,-1.7227397E-4,-2.8533954E-2,-1.4516039E-1,1.1362524E-1,-1.1513788E-2],"categories":[],"categories_nodes":[],"categories_segments":[],"categories_sizes":[],"default_left":[1,1,1,1,0,1,1,1,1,0,0,1,1,1,1,0,0,1,0,1,1,0,1,1,0,1,1,1,1,0,0,0,0,0,0,0,0,0,0,0,0,0,0],"id":26,"left_children":[1,3,5,7,-1,9,11,13,15,-1,-1,17,19,21,23,-1,-1,25,-1,27,29,-1,31,33,-1,35,37,39,41,-1,-1,-1,-1,-1,-1,-1,-1,-1,-1,-1,-1,-1,-1],"loss_changes":[4.006148E-2,3.6135346E-1,8.90846E-2,1.8847138E-1,0E0,4.7826506E-2,3.0338021E-2,3.481604E-1,6.572868E-2,0E0,0E0,7.623665E-1,5.4703265E-2,5.5561103E-2,1.790511E-1,0E0,0E0,5.8059026E-2,0E0,4.088696E-2,6.548524E-3,0E0,1.0109713E-2,2.679059E-1,0E0,1.0064761E-1,1.3503024E-1,3.82762E-2,7.367562E-2,0E0,0E0,0E0,0E0,0E0,0E0,0E0,0E0,0E0,0E0,0E0,0E0,0E0,0E0],"parents":[2147483647,0,0,1,1,2,2,3,3,5,5,6,6,7,7,8,8,11,11,12,12,13,13,14,14,17,17,19,19,20,20,22,22,23,23,25,25,26,26,27,27,28,28],"right_children":[2,4,6,8,-1,10,12,14,16,-1,-1,18,20,22,24,-1,-1,26,-1,28,30,-1,32,34,-1,36,38,40,42,-1,-1,-1,-1,-1,-1,-1,-1,-1,-1,-1,-1,-1,-1],"split_conditions":[-1.0326488E0,-1.0326934E0,-1.0325112E0,-1.0328125E0,1.3503571E-1,-7.505402E-1,1.6392002E-1,-1.0415137E0,-7.505002E-1,-7.7266365E-2,1.566124E-3,1.2896703E-1,1.6874615E0,-3.2637098E-1,-7.503582E-1,-2.6753426E-3,-9.966317E-2,-1.0890574E0,1.8869849E-1,2.4487019E-1,-1.6404793E0,4.964819E-2,-3.141611E-1,-7.5045943E-1,1.50737E-1,1.0279993E0,-6.0309184E-1,-1.1018364E0,2.4493277E-1,3.3457566E-2,1.1998539E-2,-5.3752516E-3,2.8417553E-3,1.2333069E-1,-9.14898E-3,-2.644814E-2,4.7328476E-2,3.5452545E-2,-5.1682193E-5,-8.560186E-3,-4.354812E-2,3.4087576E-2,-3.4541367E-3],"split_indices":[1,1,1,1,0,0,2,1,0,0,0,2,1,3,0,0,0,0,0,2,0,0,0,0,0,1,0,0,2,0,0,0,0,0,0,0,0,0,0,0,0,0,0],"split_type":[0,0,0,0,0,0,0,0,0,0,0,0,0,0,0,0,0,0,0,0,0,0,0,0,0,0,0,0,0,0,0,0,0,0,0,0,0,0,0,0,0,0,0],"sum_hessian":[2.71E2,6.2E1,2.09E2,6.1E1,1E0,2E0,2.07E2,5.9E1,2E0,1E0,1E0,1.01E2,1.06E2,5.3E1,6E0,1E0,1E0,1E2,1E0,9.8E1,8E0,1E0,5.2E1,5E0,1E0,1.2E1,8.8E1,1.5E1,8.3E1,2E0,6E0,2.6E1,2.6E1,1E0,4E0,1.1E1,1E0,1E1,7.8E1,1.2E1,3E0,4E0,7.9E1],"tree_param":{"num_deleted":"0","num_feature":"4","num_nodes":"43","size_leaf_vector":"0"}},{"base_weights":[8.676272E-3,9.545089E-3,-1.1338649E-1,8.489084E-3,1.4733315E-1,2.7645014E-2,2.6462348E-3,1.574894E-2,3.8260078E-1,-1.15770064E-1,6.7366697E-3,2.5939204E-2,-1.9330597E-1,-1.3654423E-1,4.4374466E-3,1.8961382E-1,4.8834807E-3,2.2072725E-3,2.0530851E-1,-7.5798035E-3,-2.8237915E-1,-7.62846E-2,-2.1892118E-1,-1.5482521E-1,7.2666095E-3],"categories":[],"categories_nodes":[],"categories_segments":[],"categories_sizes":[],"default_left":[1,1,0,1,0,1,1,1,0,1,1,1,1,1,0,0,1,0,0,0,0,0,0,0,0],"id":27,"left_children":[1,3,-1,5,-1,7,9,11,-1,13,15,17,19,21,-1,-1,23,-1,-1,-1,-1,-1,-1,-1,-1],"loss_changes":[2.9927919E-2,3.8181074E-2,0E0,3.0146653E-2,0E0,2.5999698E-1,1.0152975E-1,1.3709433E-1,0E0,1.8086381E-2,6.7533016E-2,2.5495362E-1,4.7489278E-2,1.3083711E-2,0E0,0E0,7.762693E-2,0E0,0E0,0E0,0E0,0E0,0E0,0E0,0E0],"parents":[2147483647,0,0,1,1,3,3,5,5,6,6,7,7,9,9,10,10,11,11,12,12,13,13,16,16],"right_children":[2,4,-1,6,-1,8,10,12,-1,14,16,18,20,22,-1,-1,24,-1,-1,-1,-1,-1,-1,-1,-1],"split_conditions":[1.3324318E0,1.277648E0,-3.401595E-2,-1.0326488E0,4.4199944E-2,-1.0326934E0,-1.03198E0,-1.0328125E0,1.1478024E-1,-7.505402E-1,-1.030908E0,-1.0415137E0,-7.505002E-1,-7.505605E-1,1.331234E-3,5.6884147E-2,-1.0249436E0,6.6218176E-4,6.1592557E-2,-2.2739412E-3,-8.471375E-2,-2.2885382E-2,-6.567636E-2,-4.6447564E-2,2.1799828E-3],"split_indices":[2,2,0,1,0,1,1,1,0,0,1,1,0,0,0,0,1,0,0,0,0,0,0,0,0],"split_type":[0,0,0,0,0,0,0,0,0,0,0,0,0,0,0,0,0,0,0,0,0,0,0,0,0],"sum_hessian":[2.71E2,2.7E2,1E0,2.69E2,1E0,6.2E1,2.07E2,6.1E1,1E0,6E0,2.01E2,5.9E1,2E0,5E0,1E0,1E0,2E2,5.3E1,6E0,1E0,1E0,4E0,1E0,2E0,1.98E2],"tree_param":{"num_deleted":"0","num_feature":"4","num_nodes":"25","size_leaf_vector":"0"}},{"base_weights":[6.167547E-3,7.706383E-3,-4.5577336E-2,8.465714E-3,-9.637851E-2,-2.5529332E-2,-7.0480905E-2,7.3436485E-3,1.0363754E-1,-3.6765892E-2,1.5326738E-2,1.6341584E-2,-2.498104E-3,1.2523317E-1,3.0223131E-2,8.615331E-3,5.33556E-1,6.449896E-2,-9.467379E-3,-8.873053E-3,3.1589545E-2,1.3008736E-3,3.7983894E-1,-1.7622378E-2,2.7875105E-2],"categories":[],"categories_nodes":[],"categories_segments":[],"categories_sizes":[],"default_left":[1,1,1,1,0,1,0,1,1,0,0,1,1,0,0,1,0,1,1,0,0,0,0,0,0],"id":28,"left_children":[1,3,5,7,-1,9,-1,11,13,-1,-1,15,17,-1,-1,19,-1,21,23,-1,-1,-1,-1,-1,-1],"loss_changes":[2.2009749E-2,2.1760162E-2,2.194805E-3,2.7431222E-2,0E0,3.3179922E-3,0E0,2.3242349E-2,9.7135454E-4,0E0,0E0,5.428729E-1,5.944268E-2,0E0,0E0,5.4922633E-2,0E0,2.3865247E-1,3.5511933E-2,0E0,0E0,0E0,0E0,0E0,0E0],"parents":[2147483647,0,0,1,1,2,2,3,3,5,5,7,7,8,8,11,11,12,12,15,15,17,17,18,18],"right_children":[2,4,6,8,-1,10,-1,12,14,-1,-1,16,18,-1,-1,20,-1,22,24,-1,-1,-1,-1,-1,-1],"split_conditions":[7.1556926E-1,1.3324318E0,9.65586E-2,1.2776446E0,-2.8913556E-2,-5.2569002E-2,-2.1144273E-2,1.6392002E-1,2.8192682E0,-1.1029768E-2,4.5980215E-3,1.2896703E-1,-2.2032006E-1,3.7569955E-2,9.066939E-3,1.6485937E-1,1.600668E-1,-2.2646198E-1,1.6641033E0,-2.661916E-3,9.476864E-3,3.9026208E-4,1.1395169E-1,-5.2867136E-3,8.362532E-3],"split_indices":[3,2,0,2,0,0,0,2,0,0,0,2,3,0,0,3,0,3,1,0,0,0,0,0,0],"split_type":[0,0,0,0,0,0,0,0,0,0,0,0,0,0,0,0,0,0,0,0,0,0,0,0,0],"sum_hessian":[2.71E2,2.64E2,7E0,2.63E2,1E0,5E0,2E0,2.61E2,2E0,4E0,1E0,1.36E2,1.25E2,1E0,1E0,1.35E2,1E0,1.1E1,1.14E2,7.7E1,5.8E1,1E1,1E0,9.4E1,2E1],"tree_param":{"num_deleted":"0","num_feature":"4","num_nodes":"25","size_leaf_vector":"0"}},{"base_weights":[5.326285E-3,1.4274415E-2,-2.1562274E-3,7.816474E-3,2.060585E-1,-2.6266956E-1,1.3787922E-3,4.491978E-2,-3.3187284E-3,3.880539E-1,1.6042074E-2,2.5827503E-1,-2.1257743E-3,5.365243E-3,3.7275252E-1,1.86888E-2,-5.089108E-2,-1.0310173E-2,3.4373283E-2,-2.6695848E-1,3.3681837E-3,7.4400745E-2,-3.4877462E-3,4.5352268E-1,1.0560608E-1,1.2214148E-1,1.1713E-2,-3.3245906E-1,-2.9717734E-2,1.9359207E-1,7.0279517E-4,-1.7185566E-3,-7.538841E-3,-5.2386437E-2,3.2286263E-1,1.4555386E-2,-8.0836296E-2,-1.1611805E-1,-1.124896E-2,-1.4763888E-2,1.5532954E-2],"categories":[],"categories_nodes":[],"categories_segments":[],"categories_sizes":[],"default_left":[1,1,1,1,1,0,1,1,1,0,1,0,1,1,1,1,1,0,0,0,1,0,1,0,0,1,1,0,1,0,1,0,0,0,0,0,0,0,0,0,0],"id":29,"left_children":[1,3,5,7,9,-1,11,13,15,-1,17,-1,19,21,23,25,27,-1,-1,-1,29,-1,31,-1,-1,33,35,-1,37,-1,39,-1,-1,-1,-1,-1,-1,-1,-1,-1,-1],"loss_changes":[1.82424E-2,1.5196708E-1,1.375792E-1,5.0140567E-2,1.321033E-1,0E0,1.337949E-1,3.610837E-1,9.936438E-2,0E0,1.8036002E-3,0E0,2.1478118E-1,1.6149925E-2,1.6837656E-2,4.547759E-2,1.6897216E-1,0E0,0E0,0E0,7.338193E-2,0E0,1.5905578E-4,0E0,0E0,1.5703939E-1,1.7486379E-2,0E0,4.4969324E-2,0E0,3.3259094E-2,0E0,0E0,0E0,0E0,0E0,0E0,0E0,0E0,0E0,0E0],"parents":[2147483647,0,0,1,1,2,2,3,3,4,4,6,6,7,7,8,8,10,10,12,12,13,13,14,14,15,15,16,16,20,20,22,22,25,25,26,26,28,28,30,30],"right_children":[2,4,6,8,10,-1,12,14,16,-1,18,-1,20,22,24,26,28,-1,-1,-1,30,-1,32,-1,-1,34,36,-1,38,-1,40,-1,-1,-1,-1,-1,-1,-1,-1,-1,-1],"split_conditions":[5.013196E-2,1.8623589E-2,5.0137904E-2,-1.1019447E0,-6.0309184E-1,-7.880087E-2,5.014351E-2,-1.193068E0,-2.0420927E-1,1.1641617E-1,-6.0308015E-1,7.7482514E-2,5.4422528E-2,3.186128E-1,-1.1393446E0,-5.2634895E-1,-1.942319E-1,-3.093052E-3,1.0311985E-2,-8.008754E-2,5.4425508E-2,2.2320224E-2,-1.490221E0,1.3605681E-1,3.1681824E-2,-7.3856735E-1,3.2243423E0,-9.9737726E-2,-1.101903E0,5.8077622E-2,-7.505402E-1,-5.15567E-4,-2.2616524E-3,-1.5715932E-2,9.685879E-2,4.3666163E-3,-2.425089E-2,-3.4835417E-2,-3.374688E-3,-4.4291667E-3,4.6598865E-3],"split_indices":[3,3,3,0,0,0,3,0,3,0,0,0,3,2,0,0,3,0,0,0,3,0,0,0,0,0,0,0,0,0,0,0,0,0,0,0,0,0,0,0,0],